%YAML:1.0
---
myHogPlayerDector: !!opencv-object-detector-hog
   winSize: [ 64, 128 ]
   blockSize: [ 16, 16 ]
   blockStride: [ 8, 8 ]
   cellSize: [ 8, 8 ]
   nbins: 9
   derivAperture: 1
   winSigma: 4.
   histogramNormType: 0
   L2HysThreshold: 2.0000000000000001e-01
   gammaCorrection: 1
   nlevels: 64
   signedGradient: 0
   SVMDetector: [ -3.39538828e-02, -1.90047063e-02, -5.20905480e-03,
       -1.88964531e-02, -1.39171723e-02, -9.63574182e-03,
       -1.29489508e-02, -2.39085127e-02, -4.46320958e-02,
       -2.39497330e-03, 9.88296513e-03, -1.48453552e-03, -2.24030558e-02,
       -2.81180665e-02, -1.12849940e-02, 1.24404514e-02, -2.88586039e-03,
       -8.12552869e-03, -4.39936761e-03, 2.25242022e-02, 1.88361835e-02,
       1.17486631e-02, -1.24659389e-02, -1.83218122e-02, -7.30918022e-03,
       -8.90404452e-03, -1.45027107e-02, 1.56178763e-02, 2.31759604e-02,
       -4.58582537e-03, 1.98728740e-02, 1.39807526e-04, -2.54523032e-03,
       3.22847366e-02, 3.52929644e-02, 6.16974710e-03, -3.84369530e-02,
       -5.85294608e-03, -8.08057655e-03, -2.56268475e-02, 2.54030968e-03,
       -1.75282005e-02, 3.39743751e-03, -8.05008318e-03, -4.54040691e-02,
       -1.24559365e-02, 1.83337629e-02, 9.37601551e-03, 9.99134034e-03,
       1.31255006e-02, -7.73528172e-03, -2.29566684e-03, -6.15310203e-03,
       -2.97972355e-02, -1.03420457e-02, 4.15806146e-03, -3.66264675e-03,
       1.78633761e-02, 1.68235414e-03, -2.19301209e-02, 1.89733617e-02,
       1.33390082e-02, -2.18458939e-02, 1.27001498e-02, 1.86609365e-02,
       2.29315627e-02, 2.12580338e-02, 1.89762819e-03, 6.64978288e-03,
       2.79317722e-02, 2.86296792e-02, 1.15053367e-03, -8.47046915e-03,
       5.59559790e-03, -1.07026659e-02, -6.34224433e-03, -4.00133654e-02,
       -2.11717337e-02, -2.06558704e-02, -2.86351275e-02,
       -4.86789234e-02, 1.42095424e-02, 3.60910483e-02, 1.18900454e-02,
       1.95185021e-02, -2.14915238e-02, -9.06615611e-03, -1.55158779e-02,
       -2.21827459e-02, -2.98048668e-02, -1.82963233e-03, 9.30276327e-03,
       -2.11706441e-02, 2.52156216e-03, -1.78903677e-02, -1.82990693e-02,
       -8.45223852e-03, 2.54661980e-04, -3.28719132e-02, -3.54496785e-03,
       2.02564560e-02, 3.99968727e-03, 3.67174409e-02, -2.79705948e-03,
       1.18121561e-02, 1.47279333e-02, 1.13027804e-02, -1.55206136e-02,
       -9.53447446e-03, 1.34975649e-02, 2.30702382e-04, -5.70716802e-03,
       -1.48014957e-02, -1.27418060e-02, -2.87104044e-02,
       -2.05969550e-02, -4.08140831e-02, -3.62326414e-03, 1.94233824e-02,
       9.81320068e-03, -1.26339411e-02, -3.00795063e-02, -2.07587853e-02,
       -3.23785916e-02, -1.50585501e-02, -2.64895987e-02,
       -1.38268853e-02, 2.06547864e-02, 2.78605539e-02, 8.47798027e-03,
       -1.76391155e-02, 1.24538839e-02, -3.18662060e-04, -3.15576815e-03,
       -1.95302814e-02, -5.72307641e-03, 8.47930834e-03, 3.02484408e-02,
       -4.16638143e-03, -7.24476483e-03, 3.97491967e-03, 6.30456489e-03,
       1.55951893e-02, 1.61413534e-03, -1.13245659e-02, 2.30553225e-02,
       5.74052625e-04, -3.03283823e-03, -1.86529197e-02, -2.03324705e-02,
       -1.28937960e-02, -5.79747045e-03, -2.16214173e-02, 1.76468620e-03,
       2.11461224e-02, -8.85254983e-03, -1.76958356e-03, -1.22470222e-02,
       -9.54080001e-03, -1.20459469e-02, -1.85314659e-02,
       -2.97370069e-02, 8.06880300e-04, 2.98708659e-02, -1.89665414e-03,
       -2.87504378e-03, -2.23026108e-02, -2.32374691e-03, 4.47374722e-03,
       2.14063525e-02, 1.86832175e-02, 1.85600556e-02, 3.83244678e-02,
       -1.92107167e-03, 8.70089326e-03, -1.50759416e-02, -2.73594372e-02,
       -9.91480332e-03, 1.48433242e-02, 1.66932978e-02, -5.38308267e-03,
       9.37406346e-03, -2.01483481e-02, -1.61829311e-02, 2.90278299e-03,
       1.17338933e-02, -1.90737173e-02, -1.63197517e-02, -2.46036481e-02,
       -1.59799792e-02, 1.42751150e-02, -1.54563803e-02, -1.12815248e-02,
       -1.05819413e-02, -1.46075496e-02, -4.28928882e-02,
       -2.06307136e-02, -2.61536725e-02, 2.17347089e-02, 3.11564840e-02,
       1.02057336e-02, 1.87129676e-02, 1.99624542e-02, -1.67820975e-02,
       -4.83070174e-03, 1.26847764e-02, -6.77029311e-05, -2.72828923e-03,
       3.02760135e-02, 2.23257840e-02, 1.59149356e-02, -3.71288210e-02,
       -1.08498326e-02, -9.64918546e-03, 7.35528534e-03, -1.65482964e-02,
       1.23851039e-02, 3.29681486e-02, -3.16763925e-03, -1.22623984e-03,
       -2.37242542e-02, -1.25765549e-02, -2.28723008e-02, 9.17505764e-04,
       -1.31224366e-02, 4.33465233e-03, 1.45641975e-02, -1.17478482e-02,
       -8.25764984e-03, -3.87924351e-02, -3.16470861e-02,
       -2.00804882e-02, -1.64509621e-02, -2.70735156e-02,
       -7.05711823e-03, 3.58351432e-02, 2.39871237e-02, 2.33205389e-02,
       -2.86121778e-02, -5.08541521e-03, -1.04927958e-03, 1.87713075e-02,
       -1.47178685e-02, -6.53136848e-03, 3.23620997e-02, 1.74977127e-02,
       1.80349965e-02, -2.36829575e-02, -7.40178209e-03, 3.71252373e-03,
       2.23119166e-02, -2.20510717e-02, -2.09507154e-04, 1.00431661e-03,
       -1.23143829e-02, -1.50773507e-02, -3.29723246e-02,
       -6.75365608e-03, -9.60362516e-03, -6.36614999e-03,
       -2.69101523e-02, -3.13696195e-03, -7.32540572e-03,
       -2.59891376e-02, -1.90840010e-02, 4.56454698e-03, 3.44659854e-03,
       -6.54177601e-03, -9.76736937e-03, -2.25040372e-02, 1.19208405e-02,
       3.45789455e-02, 1.21190092e-02, 1.24980183e-02, -7.65999826e-03,
       -6.46482920e-04, 1.20296227e-02, 2.04959586e-02, -5.78191318e-03,
       2.08608266e-02, 3.38593125e-02, 5.19493828e-03, -1.20768966e-02,
       -1.98639315e-02, -1.66758930e-03, 1.55974496e-02, 1.20010069e-02,
       1.19019747e-02, -7.45876320e-03, -3.98548553e-03, -3.01151350e-02,
       -2.27066334e-02, -1.13932304e-02, -1.61939580e-03,
       -1.08067342e-03, -1.32319443e-02, -1.90471597e-02,
       -4.30495245e-03, 1.92900561e-02, -8.35152157e-03, -1.68038197e-02,
       -2.44981330e-02, -3.55465785e-02, -9.20351408e-03, 1.23220785e-02,
       -2.00096872e-02, 1.43165169e-02, 4.14139032e-02, 4.51232586e-03,
       1.72152999e-03, -1.04016596e-02, 7.55016971e-03, 1.96624789e-02,
       7.68878730e-03, -4.59358003e-03, -1.83844268e-02, 1.46874692e-02,
       1.69066284e-02, 2.36941185e-02, -2.33949795e-02, 2.77539063e-03,
       1.43299494e-02, 3.51844095e-02, -3.34890522e-02, 9.04548727e-03,
       1.86943710e-02, -1.49776991e-02, -2.81660855e-02, -3.47907357e-02,
       -4.12124656e-02, -2.50234990e-03, 2.54908185e-02, -2.87027238e-03,
       -1.20349729e-03, 1.32834949e-02, -4.33960408e-02, -3.03605273e-02,
       -1.97746586e-02, -1.73418000e-02, -7.15323817e-03, 2.97244582e-02,
       -4.80949617e-04, -3.39888805e-03, 2.74110883e-02, 1.05090970e-02,
       1.48616834e-02, -3.80406268e-02, -3.84820229e-03, 1.20621705e-02,
       2.70339958e-02, -1.11936778e-02, -2.11952515e-02, -1.50199374e-03,
       -3.26530635e-02, 1.00076282e-02, -7.05065578e-03, -8.80687404e-03,
       3.78609169e-03, 1.46229248e-02, -3.03183328e-02, -1.62807293e-02,
       -4.82144207e-03, -4.32360955e-02, -4.80654985e-02,
       -8.05135723e-03, -1.91610493e-03, 3.59145389e-03, 3.66437100e-02,
       4.24056285e-04, -1.97166335e-02, 1.57475248e-02, 5.08065196e-03,
       -1.72515120e-02, -1.91402528e-02, -3.44356820e-02,
       -2.10196786e-02, -5.16041042e-03, -3.89515348e-02,
       -1.99367516e-02, -2.23895977e-03, -1.34567572e-02, 4.83683823e-03,
       -1.55006312e-02, 2.94389832e-03, 2.11281627e-02, 1.79461446e-02,
       -2.37602871e-02, -1.49629209e-02, 1.51398908e-02, 1.69072244e-02,
       2.13720407e-02, -9.78157017e-03, -2.87843235e-02, 7.12938374e-04,
       3.33206961e-03, -3.09409853e-02, 8.52416456e-03, 2.05035806e-02,
       5.07957628e-03, -1.95692293e-02, -1.98057611e-02, -3.68688852e-02,
       -1.30283497e-02, -9.63486079e-03, -6.51714252e-03,
       -2.31622029e-02, -4.71983012e-03, -1.25276810e-02,
       -1.28962817e-02, -2.36584209e-02, -3.85539117e-03, 2.98136962e-03,
       6.37385016e-03, -1.48833347e-02, 1.56876072e-02, -2.86171841e-03,
       1.70238763e-02, -1.68479979e-02, -2.41482388e-02, -3.62625271e-02,
       -6.35886239e-03, 2.74542393e-03, -5.41009009e-03, -1.92868263e-02,
       -4.17445460e-03, 4.47914033e-04, -2.49719783e-03, -2.80298088e-02,
       2.05645058e-02, 1.07048461e-02, 1.60414744e-02, -4.89754928e-03,
       -2.23088209e-02, -4.95206006e-03, -2.41856389e-02,
       -1.81100983e-02, -2.53069326e-02, -3.71275540e-03, 7.42289657e-03,
       1.69397630e-02, -1.40301306e-02, -4.38978663e-04, -3.81862256e-03,
       -1.57746430e-02, -7.55125983e-03, -1.07531156e-02,
       -2.44164839e-02, -6.09699450e-03, 3.28098573e-02, 6.79124100e-03,
       -9.19366442e-03, 1.60558783e-02, -4.83536720e-03, 9.98334493e-03,
       -4.18430567e-02, 1.96048208e-02, -6.50884397e-03, 1.60403699e-02,
       -1.34985270e-02, 1.23134605e-03, 6.33988110e-03, 6.55223522e-03,
       -8.63357168e-03, -1.30053945e-02, -1.37741817e-02,
       -8.70086066e-03, 1.63076520e-02, -3.27425171e-03, -7.34808762e-03,
       2.55682901e-03, -1.80463563e-03, 1.24712742e-03, -2.37741731e-02,
       -1.95137579e-02, -7.76674133e-04, 1.79290920e-02, 6.95053604e-04,
       -4.21267515e-03, 1.89733859e-02, 9.38098412e-03, -8.74084514e-03,
       -1.86084211e-02, 3.29400636e-02, 8.64776783e-03, -1.82642078e-03,
       -2.42392197e-02, -1.53380157e-02, -1.07958848e-02,
       -4.99654515e-03, -7.38252886e-03, -1.21724997e-02,
       -2.37845872e-02, 1.62912980e-02, 2.64940523e-02, -1.57305449e-02,
       -1.26222065e-02, -1.48451841e-02, -1.73885878e-02,
       -9.16538481e-03, -2.27081478e-02, 1.40742941e-05, 2.57376842e-02,
       1.70551371e-02, -1.40363341e-02, -7.18815578e-03, 4.90957825e-03,
       -2.84066395e-04, -2.52000615e-02, -1.30480407e-02, 1.99028607e-02,
       -4.37293027e-04, -9.14516672e-03, -1.44564072e-02,
       -4.32009026e-02, -3.85430492e-02, -1.54639464e-02,
       -4.45411578e-02, -2.24943608e-02, 2.12971447e-03, 4.11428139e-03,
       4.44501825e-03, -2.02447958e-02, 1.40529126e-03, 9.66601912e-03,
       1.03837503e-02, -9.23405588e-03, -3.49759720e-02, 3.31455953e-02,
       1.30759031e-02, 9.11834650e-03, -5.33040660e-03, -2.38564629e-02,
       9.39773489e-03, 1.48277748e-02, -1.98204932e-03, -2.28683073e-02,
       4.41536345e-02, 2.45693214e-02, 1.49820708e-02, -2.65704654e-02,
       -3.00102215e-02, -3.49189620e-03, 1.64053682e-02, 2.67157592e-02,
       -4.08246517e-02, -2.65334416e-02, -2.09623892e-02,
       -2.97261998e-02, -5.79534993e-02, -2.65219957e-02, 3.11770686e-03,
       1.79681811e-03, 3.08247954e-02, -3.11091170e-02, -1.41243432e-02,
       1.02601561e-03, -1.19071975e-02, -4.03880179e-02, -1.11569498e-05,
       1.18488809e-02, 3.15521285e-02, 4.07139547e-02, -4.37826663e-02,
       -1.53804552e-02, -1.89331751e-02, -1.73214506e-02,
       -2.04054378e-02, 1.63113065e-02, 2.18963921e-02, 3.77434827e-02,
       4.61596586e-02, -2.25327387e-02, 3.07409582e-03, 3.05378484e-03,
       4.02666628e-03, -9.43393447e-03, -3.26534510e-02, -1.42103462e-02,
       -1.37389945e-02, 1.32034216e-02, -3.97768989e-02, -2.10610703e-02,
       5.34853060e-03, -7.46816490e-03, -3.06784268e-02, -2.96699926e-02,
       -5.95342787e-03, -9.78190638e-03, 1.76648721e-02, -4.79956940e-02,
       5.91899874e-03, 4.68658662e-04, -5.27811935e-03, -3.44979912e-02,
       -8.26601125e-03, 1.04516232e-02, 6.47696946e-03, 5.50381653e-03,
       8.13377410e-05, 1.19096600e-02, 3.17995739e-03, 6.49213558e-03,
       -8.07634089e-03, -1.80811193e-02, 1.00970007e-02, -2.51255985e-02,
       8.20232835e-03, 4.65175090e-03, 3.25869322e-02, 5.53001463e-03,
       2.36811321e-02, 2.07281858e-03, -2.67794318e-02, -8.33471713e-04,
       -3.11976727e-02, -1.02203880e-02, -1.56374760e-02, 6.48361573e-04,
       -1.22955060e-02, -7.76866311e-03, -4.02679481e-02,
       -1.07739493e-02, 1.04718255e-02, 1.09176366e-02, -1.17250573e-04,
       -2.65889857e-02, 5.92109398e-04, -7.52986828e-03, -6.62645092e-04,
       -1.70742981e-02, -2.03594025e-02, 1.36769190e-02, -1.71023607e-02,
       -2.23011989e-02, -3.18892226e-02, 1.63693260e-02, -2.38382202e-02,
       7.95237161e-03, -1.67207085e-02, 4.70043335e-04, 3.46807837e-02,
       -2.90888664e-03, -1.33653972e-02, -5.45824543e-02,
       -1.71145052e-02, -2.58519333e-02, -1.16206817e-02,
       -1.53241446e-02, -3.62028815e-02, 2.29304284e-02, 1.07659986e-02,
       -2.60989480e-02, -3.42990644e-02, -5.04518906e-03,
       -5.23341540e-03, -5.97580010e-03, -2.74386983e-02,
       -2.29171459e-02, 1.25278486e-02, 2.44222134e-02, -2.85472516e-02,
       -1.96762811e-02, 7.02531962e-03, 8.04411061e-03, -2.03451235e-03,
       -5.19000553e-03, -6.91280514e-03, 2.11310368e-02, -1.14616624e-03,
       -5.41220792e-03, -3.51556614e-02, -5.18036028e-03,
       -7.31327059e-03, -8.74432642e-03, -1.35881361e-02,
       -2.32957564e-02, 2.14763433e-02, 1.12707941e-02, -1.34371910e-02,
       -1.82578957e-03, -7.66157638e-03, -4.30890638e-03,
       -3.20604932e-03, -6.65349374e-03, 1.17779952e-02, 1.47379357e-02,
       -7.36098597e-03, -2.86349673e-02, -4.23723459e-02,
       -1.57961603e-02, -4.04706364e-03, 1.23140942e-02, 2.25963593e-02,
       2.81068422e-02, 1.42383277e-02, -1.21403662e-02, -2.02599447e-02,
       -1.99296158e-02, -2.89794616e-02, -1.09717231e-02, 2.74536330e-02,
       3.25722396e-02, -1.65086670e-03, 1.24156969e-02, -1.06419800e-02,
       -2.64187716e-02, -5.21562882e-02, -2.75769867e-02,
       -3.54626798e-03, 2.08151098e-02, 2.29382887e-02, 9.30542964e-03,
       3.38495383e-03, -4.94785002e-03, -8.02542828e-03, -4.86658812e-02,
       -2.41610203e-02, -1.29021602e-02, 2.42229849e-02, 1.31292408e-02,
       5.45545574e-03, 2.11297944e-02, 1.81661546e-03, -2.41448823e-03,
       -4.77763871e-03, -2.92820446e-02, -8.72294232e-03, 3.40480804e-02,
       2.06938930e-05, -3.29028955e-03, 2.29307339e-02, -1.96786188e-02,
       -1.37905758e-02, -3.37552205e-02, -1.88963898e-02,
       -1.73299052e-02, 8.49265326e-03, -2.15062927e-02, -1.14427442e-02,
       1.94588602e-02, 7.19507458e-04, 2.21358472e-03, -1.87448766e-02,
       -1.99406352e-02, -2.15751193e-02, 1.72236171e-02, -7.77789950e-03,
       8.00003577e-03, 4.29865159e-02, -1.33959204e-02, -1.26647186e-02,
       -5.49659282e-02, -2.35353820e-02, -1.22188358e-02, 1.64560303e-02,
       -1.53223164e-02, -1.61612872e-02, 1.01262713e-02, -1.24222925e-03,
       7.56365946e-03, -2.77191177e-02, -2.01360248e-02, -8.83114338e-03,
       -5.67398127e-03, -2.57235877e-02, -1.62257794e-02, 2.62867045e-02,
       4.36037546e-04, 1.54693862e-02, -2.57660467e-02, -1.72574036e-02,
       -1.16883516e-02, -2.82664504e-03, -3.42636779e-02, 1.15793394e-02,
       2.73587909e-02, 6.98407355e-04, 4.53754002e-03, -1.93738174e-02,
       -7.90204853e-03, -4.50346526e-03, 3.18039884e-03, -6.44271821e-03,
       -5.20496769e-03, 3.45158465e-02, -4.44566365e-03, 2.02952437e-02,
       -3.58117707e-02, 1.01471152e-02, -2.95083201e-03, -2.34101107e-03,
       -2.47425362e-02, -1.24134654e-02, -3.42450361e-03,
       -2.66728420e-02, -2.68000886e-02, -1.97994765e-02,
       -1.04757994e-02, 6.13804441e-03, 8.13793205e-03, -1.51694268e-02,
       1.61898956e-02, 6.66897558e-03, -1.21666677e-02, -1.81960501e-02,
       -2.24330816e-02, -8.10677884e-04, 2.24103522e-03, 3.73046356e-03,
       -2.86951079e-04, -3.56407207e-03, 1.87062211e-02, -2.53638215e-02,
       -1.78278498e-02, -1.22766290e-02, 9.34188534e-03, 8.06782953e-03,
       9.81884170e-03, -1.73790101e-02, 1.01689277e-02, -1.17858583e-02,
       -1.54484753e-02, -1.27088814e-03, -2.57566795e-02, 2.31352895e-02,
       3.97566799e-03, 8.14352371e-03, 5.09975059e-03, -4.54358943e-03,
       1.17249759e-02, -7.87824299e-03, -4.67046024e-03, -2.75754686e-02,
       -3.48485075e-03, -6.25176774e-03, -1.75334048e-02,
       -1.98135860e-02, -3.75118405e-02, -2.54007289e-03,
       -4.35313530e-04, 1.57722551e-02, -1.13740601e-02, 1.05668418e-03,
       -1.70002542e-02, -1.08258110e-02, -5.50168864e-02, 1.18946908e-02,
       1.75364278e-02, -1.07887024e-02, 1.59975141e-02, -2.14219224e-02,
       1.19272163e-02, -2.93293782e-03, -2.84884125e-03, 4.96684434e-03,
       -2.69035622e-02, 4.04866133e-03, -4.37542610e-03, 5.96611667e-03,
       -7.40785757e-03, 1.66571606e-02, 9.84238554e-03, -1.04118418e-03,
       -1.24290334e-02, -1.95753109e-02, 3.48937558e-03, -3.88025976e-04,
       4.36932920e-03, -2.58407723e-02, 2.21330789e-03, 1.45038245e-02,
       1.23701217e-02, -2.80208252e-02, -2.26511844e-02, -7.21143279e-03,
       -2.63642669e-02, 1.87991362e-03, -2.17836872e-02, -1.58542246e-02,
       -6.22180942e-03, -1.06328749e-03, -3.15825529e-02, 1.74102571e-03,
       2.78527066e-02, 8.55764747e-03, 8.84298701e-03, -1.29809566e-02,
       8.62942170e-03, 2.46673860e-02, 2.45448779e-02, -3.04333819e-03,
       -2.60086847e-03, -1.84186827e-03, -2.12247837e-02, 1.10416452e-03,
       -3.69684324e-02, -2.34835558e-02, -9.18888114e-03,
       -9.17896861e-04, -7.28679309e-03, -1.40637634e-02, 1.70781873e-02,
       -3.80551955e-03, 1.21079972e-02, -2.66999044e-02, -1.59410329e-03,
       2.49936385e-03, 2.04431848e-03, -2.67717671e-02, -1.35699185e-02,
       1.85797364e-02, 8.16691108e-03, 2.51555312e-02, -3.26958783e-02,
       -2.00402010e-02, -8.57277424e-04, 4.98261023e-03, -2.33207271e-02,
       -6.28195051e-03, 3.32893943e-03, -5.24857128e-03, 2.15047095e-02,
       -5.11212880e-03, -9.11104027e-03, -6.31665206e-03, 2.41732155e-03,
       -8.42930377e-03, -1.04201026e-02, 1.25872400e-02, 1.20338583e-02,
       2.62202322e-02, -5.60123138e-02, -1.60427298e-02, -1.07280351e-02,
       -9.23228636e-03, -5.89180971e-03, 1.58378091e-02, 4.19613626e-03,
       1.11705568e-02, -2.33373465e-03, -3.89400423e-02, -2.72549000e-02,
       -9.73380543e-03, -4.77246381e-03, -8.78425594e-03,
       -7.48369424e-03, 1.31209027e-02, -9.92482342e-03, -8.29951721e-04,
       -1.40025541e-02, 8.75968393e-03, -1.81474146e-02, -2.97279051e-03,
       -6.82549691e-03, 2.29957607e-02, 1.47374552e-02, -2.22287071e-03,
       -6.35612116e-04, -3.20128836e-02, -3.40749025e-02,
       -1.60557013e-02, -6.29042741e-04, -1.89592864e-03,
       -1.32381706e-03, -3.18962312e-03, -1.24654248e-02, 1.03736650e-02,
       2.81789736e-03, 6.06493605e-03, -7.77977519e-03, 1.44638564e-03,
       -1.79402158e-03, -1.43083395e-03, 1.36206411e-02, -9.54715628e-03,
       6.25107531e-03, -1.93959624e-02, 1.37087489e-02, -2.11114101e-02,
       -7.21615041e-03, -1.12933433e-02, 5.07970294e-03, 1.80676579e-02,
       1.20929359e-02, -4.84196004e-03, -1.68209728e-02, -3.00675128e-02,
       -1.66439638e-02, -1.07631339e-02, -8.21648631e-03,
       -7.59059517e-03, 2.75976816e-03, 8.36039241e-03, 1.40749104e-02,
       -4.37393971e-03, -1.25514914e-03, -2.16354802e-02,
       -9.75132268e-03, -3.97761265e-04, 4.40226914e-03, 3.44327930e-03,
       8.08434654e-03, -5.78529574e-03, -2.59629488e-02, -1.13100242e-02,
       -1.47847300e-02, -6.29498251e-03, -1.53082451e-02, 2.34790961e-03,
       -1.38354218e-02, -1.49924429e-02, -1.75456572e-02,
       -1.66269355e-02, -2.21422259e-02, 2.52940506e-02, 1.26305167e-02,
       -4.79665725e-03, -1.60205103e-02, -2.60846782e-02,
       -2.59418562e-02, 1.09718172e-02, -1.31071890e-02, -1.44768804e-02,
       8.90871976e-03, 1.97096681e-03, -1.24282837e-02, -3.36568896e-03,
       -3.19318683e-03, 9.62773431e-03, -1.85502023e-02, 1.50335804e-02,
       4.70928242e-03, 1.77424029e-02, 9.06300265e-03, -1.30612473e-03,
       -2.45176554e-02, -1.12197800e-02, -1.35284979e-02,
       -1.22544495e-03, 1.46540664e-02, -7.84634799e-03, -6.34306198e-05,
       9.27107502e-03, -1.39971916e-02, 1.37892272e-03, 6.08111592e-03,
       9.68307815e-03, 6.35317806e-03, -3.47468331e-02, -1.05089624e-03,
       -7.48278201e-03, -3.79184610e-03, -1.28494985e-02,
       -1.11443195e-02, 1.80276725e-02, 1.84925236e-02, 1.03605473e-02,
       -7.71670463e-03, 2.43237335e-02, 1.01652676e-02, 5.11179771e-03,
       -2.39147376e-02, 9.35444981e-03, 6.79743756e-03, 2.32248311e-03,
       1.51855256e-02, -2.89381798e-02, -1.18552437e-02, -2.12587044e-02,
       5.48129249e-03, 1.67383952e-03, -2.52120737e-02, -1.12900157e-02,
       2.59452173e-03, -1.51475356e-03, -3.89602827e-03, 1.18592624e-02,
       3.71440151e-03, 7.66285043e-03, -2.13588402e-02, -7.99866859e-03,
       7.21480837e-03, 1.72398034e-02, 2.21348181e-02, -9.63367522e-03,
       -1.71819143e-02, -1.85903292e-02, -2.89004855e-02,
       -3.53642702e-02, -4.29929420e-03, 1.85693633e-02, 2.67010070e-02,
       2.38418337e-02, -2.96032429e-02, -8.65240488e-03, -2.20786836e-02,
       -1.51557587e-02, -3.76381911e-02, -1.37736024e-02, 6.33682078e-03,
       -6.30733930e-03, 3.23319621e-03, -1.86586976e-02, -9.75532830e-03,
       1.46569172e-03, -1.85808130e-02, -3.55611071e-02, 1.34835355e-02,
       3.14505100e-02, 1.02514271e-02, 1.62967760e-02, -2.14574821e-02,
       -2.22651451e-03, 6.28471666e-04, -4.17248718e-03, -2.19168011e-02,
       -2.34567374e-02, 1.37323663e-02, -6.35812059e-03, 8.31633527e-03,
       -8.35090410e-03, 1.32927047e-02, -6.81103300e-03, -5.12676220e-03,
       -3.93065549e-02, -3.99463624e-02, 1.38340918e-02, -1.15160085e-02,
       -1.82161201e-02, 2.02664677e-02, 3.45153697e-02, -6.55253837e-03,
       5.58643881e-03, -2.87754219e-02, 1.86851353e-03, 2.35782769e-02,
       -1.66608859e-02, 7.27278367e-03, -1.84448101e-02, -2.50580860e-03,
       3.64623760e-04, 5.24083246e-03, -1.05457855e-02, -1.10506406e-02,
       2.31970605e-02, -7.17498828e-03, -1.65019948e-02, 5.33830188e-03,
       1.50228655e-02, 3.21539305e-03, 1.16996355e-02, -1.36934891e-02,
       -3.93382348e-02, -1.51019627e-02, -2.48099528e-02,
       -2.04348229e-02, -2.34604347e-02, 1.59913450e-02, -1.84455905e-02,
       -3.34577542e-03, -3.06569785e-02, -1.87197365e-02, 1.09535092e-02,
       8.38447455e-03, 5.51909907e-03, -4.79888432e-02, -3.98219470e-03,
       -2.65508071e-02, -9.28481761e-03, -3.69381048e-02,
       -1.01342453e-02, -1.36607662e-02, -2.38858517e-02,
       -1.26481652e-02, -1.75152700e-02, -6.90395106e-03,
       -1.05306963e-02, 2.23025144e-03, -1.15475077e-02, 8.61288700e-03,
       1.34477867e-02, 1.47797996e-02, 1.26440227e-02, -1.68468095e-02,
       -9.22742859e-03, -1.36808315e-02, 3.12062050e-03, 1.35426903e-02,
       -2.43414659e-02, 6.76589040e-03, 1.94110046e-03, 3.46347783e-03,
       -5.78097217e-02, -2.50181463e-02, -3.50654274e-02,
       -2.56564151e-02, -4.20887060e-02, -3.61986347e-02, 1.56404767e-02,
       -1.12984218e-02, -4.20156494e-03, -5.80153614e-03,
       -1.73189379e-02, -3.65013517e-02, -1.65795051e-02,
       -3.40825059e-02, 2.40820907e-02, -4.01416328e-03, 1.11444695e-02,
       -1.75994891e-03, -2.33163759e-02, -2.45645829e-02,
       -4.66735736e-02, -6.04585418e-03, 1.49020925e-03, 6.79618679e-03,
       5.50810434e-03, 2.66397867e-04, -1.05259074e-02, -1.82314906e-02,
       -1.58572756e-02, -3.47337537e-02, -3.98155767e-03,
       -4.26345505e-03, -2.06276923e-02, 1.64289474e-02, -1.67051386e-02,
       -2.16946639e-02, -4.20096479e-02, -1.29695395e-02, 4.41290846e-04,
       1.46123106e-02, -2.88519455e-04, -1.94982365e-02, -5.96416276e-03,
       -1.86927430e-02, -1.64962597e-02, -4.17334959e-02,
       -5.63075067e-03, 2.85798014e-04, 9.24975611e-03, -1.73589047e-02,
       -1.35088535e-02, 1.13383625e-02, -9.58491757e-04, -9.73935239e-03,
       -3.61592583e-02, -1.55925918e-02, -3.19830095e-03, 1.44123957e-02,
       -1.33271478e-02, -2.45788638e-02, 2.70877546e-03, -1.02345515e-02,
       -2.05154736e-02, -3.85847278e-02, -2.06443723e-02,
       -1.18349157e-02, -1.46531768e-03, -1.33151514e-02,
       -1.41135445e-02, 1.43301403e-02, -1.56160397e-03, -6.17760979e-03,
       -1.73180122e-02, 7.72223622e-03, -1.74276516e-04, 9.84205678e-03,
       -2.64191423e-02, -7.61541771e-03, 2.92703006e-02, 3.52366874e-03,
       -2.98572262e-03, -1.37441717e-02, -1.17402980e-02,
       -6.41197781e-04, 5.95072843e-03, -3.70456576e-02, 2.93044257e-03,
       2.26046294e-02, -5.07437391e-03, -1.83708314e-02, 4.96654399e-03,
       9.44012590e-03, -8.30080081e-03, -5.80132939e-03, -1.20604066e-02,
       -1.32982861e-02, 2.28937063e-02, -2.09456887e-02, -8.26419517e-03,
       -1.99178606e-02, 4.30845842e-03, 3.91202746e-03, -7.94900209e-03,
       -4.18165773e-02, -1.42771881e-02, 9.29579895e-04, 2.54906295e-03,
       5.86888567e-03, -1.42348977e-02, 1.73648214e-03, 1.52267730e-02,
       1.05402367e-02, -2.58796755e-02, -1.56111298e-02, 6.44350890e-03,
       -3.09590138e-02, 8.60339310e-03, -3.55926417e-02, 1.92316119e-02,
       -1.27251481e-03, -1.12821031e-02, -2.46928316e-02,
       -1.74134132e-02, 5.83446026e-03, 4.92871320e-03, 4.26959945e-03,
       -2.43006628e-02, -2.30884855e-03, 5.68041345e-03, -1.48860775e-02,
       -3.40323150e-02, -2.62599364e-02, -9.53032821e-03,
       -2.44401824e-02, -1.04641588e-03, -3.96701582e-02, 1.30271632e-02,
       5.86779602e-03, -1.78233571e-02, -3.07812002e-02, -1.67149790e-02,
       -1.88237685e-03, -3.43827270e-02, -2.18905155e-02,
       -2.04912368e-02, -6.18506689e-03, -1.66813470e-02,
       -2.28828005e-02, -3.03900689e-02, 5.71723841e-03, -6.89520501e-03,
       -7.95040559e-03, 3.05197686e-02, -1.44524518e-02, -7.98906852e-03,
       -1.94044188e-02, -9.39071178e-03, -7.70560559e-03,
       -2.26096399e-02, -2.59231660e-03, -2.12909840e-02,
       -2.25783009e-02, -3.62901576e-02, -2.08895747e-02,
       -1.15703167e-02, -1.44756548e-02, -1.71723086e-02,
       -5.81075670e-04, 5.33107435e-03, -1.60505786e-03, 5.97124780e-03,
       -1.97920278e-02, -1.87875908e-02, -6.91230735e-03, 9.89380386e-03,
       -6.43834053e-03, 5.74530568e-03, -3.14227608e-03, -5.42478403e-03,
       1.31520508e-02, -2.27530766e-02, -2.24100780e-02, -2.44407002e-02,
       -1.98109318e-02, -1.82577092e-02, -2.70957500e-02, 1.13782343e-02,
       -9.69888736e-03, -1.20971119e-02, -1.70837604e-02, 3.40719824e-03,
       -7.82800373e-03, -1.77559517e-02, -3.20484452e-02,
       -2.23285938e-03, 6.92127645e-03, 4.70309315e-04, -1.11157028e-03,
       -2.51720585e-02, -2.96943616e-02, -1.49191441e-02, 1.96812022e-03,
       -1.67122353e-02, -3.89407203e-02, -8.52724817e-03,
       -1.62438285e-02, -1.75257586e-02, -2.46773381e-02, 5.10329381e-03,
       -6.29523303e-03, -6.08703867e-03, -3.17867957e-02,
       -6.00690619e-05, 3.47078592e-02, 2.11969204e-02, 8.00236594e-03,
       -7.79590383e-03, 6.79967925e-03, 3.12416632e-05, -2.34612473e-03,
       -9.61834658e-03, -9.77524370e-03, -5.13006700e-03,
       -1.12548620e-02, 1.31448498e-02, -1.67551525e-02, -3.25541124e-02,
       -2.08364408e-02, -1.41701903e-02, -1.19765643e-02,
       -1.52016738e-02, 2.22276002e-02, 1.42608825e-02, 8.77646357e-03,
       3.89217585e-03, 3.11003700e-02, 8.87999870e-03, 2.36737193e-03,
       -5.54104242e-03, -3.17882597e-02, -3.67230806e-03,
       -2.22343840e-02, 8.67288385e-04, -1.75894871e-02, -1.77498609e-02,
       -1.79358888e-02, -1.26992473e-02, -3.55137736e-02,
       -5.93482563e-03, -1.44263739e-02, -1.42635405e-02, 2.18954552e-02,
       -3.08791781e-03, -8.03056359e-03, -7.23587349e-03,
       -8.11208133e-03, 1.04358362e-03, 1.38711715e-02, 1.27494832e-05,
       3.75170237e-03, 2.35981122e-02, -3.29368301e-02, -1.49186300e-02,
       -9.11738910e-03, -1.20609188e-02, 1.31984509e-03, -1.04750115e-02,
       -8.94757081e-03, 3.79919028e-03, 1.72098633e-02, -1.62790958e-02,
       6.52416889e-03, -1.37259960e-02, -5.93864592e-03, -1.65179104e-03,
       1.06473826e-02, -3.36244935e-03, -1.31018125e-02, -1.72801001e-03,
       5.48184733e-04, 1.66960265e-02, -4.71893279e-03, -1.30833988e-03,
       -3.00534914e-04, 2.41833720e-02, 1.71239264e-02, 6.73331274e-03,
       1.23294815e-02, -5.72472699e-02, -2.72742342e-02, -5.51944552e-03,
       -1.45224752e-02, 3.67883779e-03, 5.94372908e-03, 9.47747752e-03,
       1.86173916e-02, 2.24736296e-02, -3.10036018e-02, 5.67439944e-03,
       8.83156434e-03, -9.92561504e-03, -5.65576879e-03, 5.11922641e-03,
       1.43641140e-02, -3.29032424e-03, -1.19404579e-02, -2.05628145e-02,
       9.60745104e-03, -7.33677065e-03, -1.03432089e-02, -1.35253661e-03,
       -7.56347831e-03, 9.15640965e-03, 2.34848540e-03, -2.58727395e-03,
       -3.10887713e-02, 1.15768733e-02, 1.91168245e-02, -1.21737542e-02,
       -5.27467113e-03, -2.49201874e-03, -1.62663544e-03, 1.18121374e-02,
       3.47971311e-03, -1.45935407e-02, 1.35438982e-02, 1.03040095e-02,
       5.54161146e-03, 7.34585617e-03, -8.05614702e-03, 1.91277557e-03,
       1.99291427e-02, -1.37275690e-03, -1.58295482e-02, 9.02040116e-03,
       1.46048022e-02, 9.71516222e-03, -3.71585786e-03, -1.12822128e-03,
       -1.22835845e-04, 8.42407625e-03, -1.89503301e-02, -2.56547518e-02,
       9.13592149e-03, 2.03055143e-02, -4.20417218e-03, -1.06288036e-02,
       2.95653823e-03, 3.77009576e-03, 9.10052378e-03, -4.96514654e-03,
       -2.04682946e-02, 1.65220480e-02, 1.64405722e-02, 1.36681926e-02,
       -1.46168561e-04, -1.19770141e-02, -8.99724197e-03, 9.46300384e-03,
       -9.53347143e-03, -2.41554957e-02, 7.17726024e-03, 1.13564245e-02,
       1.28944106e-02, -3.21418350e-03, -1.17038889e-02, -5.70029998e-03,
       -1.10611180e-02, 1.80154983e-02, 1.25701819e-02, -3.24790156e-03,
       5.98370796e-03, -5.45826508e-03, -1.71467885e-02, 7.47088715e-03,
       -6.68425288e-04, 9.50411614e-03, 1.08391084e-02, -1.97395552e-02,
       -1.39522401e-03, 6.85957260e-03, 2.97734290e-02, 3.40299215e-03,
       2.94143031e-03, 1.62938386e-02, -1.65169954e-03, 5.03304005e-02,
       -5.46346791e-03, -8.07184167e-03, 7.63967028e-03, 4.74136509e-03,
       -1.67089161e-02, 3.47952219e-03, 3.45771550e-03, -9.71775781e-03,
       1.02629066e-02, -8.57255794e-03, -2.84025283e-03, -3.70840915e-03,
       -4.05128347e-04, -1.26149151e-02, -2.11134143e-02,
       -1.03198653e-02, -3.56076937e-03, 5.76230371e-03, -8.52871872e-03,
       -6.50226884e-03, -5.50480606e-03, -1.23614352e-02,
       -3.45943496e-02, 1.40591515e-02, 2.21578572e-02, 1.54570153e-03,
       2.77883187e-02, -2.07990408e-02, -1.63753107e-02, 1.54054328e-03,
       -1.28920574e-03, -7.77607551e-03, 6.20968034e-03, 2.21272605e-03,
       -1.96516085e-02, -1.66706089e-02, -3.56135368e-02, 7.77821941e-03,
       -2.22994946e-03, -7.05738738e-03, -1.39555354e-02,
       -1.39890211e-02, 9.57896188e-03, 8.20321497e-03, 7.41252117e-03,
       -2.42520813e-02, 1.78818183e-03, -6.30198792e-03, -4.42759786e-03,
       -3.79844382e-02, 5.90569992e-03, 3.99677865e-02, 1.63010843e-02,
       2.47311108e-02, -2.28094384e-02, 8.03580973e-03, 7.13322591e-03,
       1.17790690e-02, -1.84064731e-02, -1.38700586e-02, -2.22499529e-03,
       -1.32452706e-02, 3.46430694e-03, -3.94870825e-02, 5.96904382e-03,
       -5.15282573e-03, -8.67272820e-03, -2.75061056e-02, 1.00315642e-02,
       2.15147231e-02, 1.49072276e-03, -2.62622954e-03, -6.31195754e-02,
       1.21975709e-02, 1.50054982e-02, 1.13208154e-02, -5.59382187e-03,
       -7.23532122e-03, 1.48362583e-02, -5.35178371e-03, 9.44833457e-03,
       -1.63954813e-02, -2.87299603e-03, -3.13368277e-03, 1.16834240e-02,
       -1.18773719e-02, -4.78879374e-04, 2.71156952e-02, 4.54172771e-03,
       1.31450435e-02, 2.38115340e-02, 3.00097768e-03, 5.15891984e-03,
       8.14074930e-03, -1.60604361e-02, -1.18024005e-02, 2.48791985e-02,
       4.57045203e-03, 1.03127602e-02, -3.02463621e-02, -1.50357373e-03,
       4.54003084e-03, -6.07057475e-03, -1.83799751e-02, -1.21556753e-02,
       2.11177357e-02, 1.79239362e-02, 2.87265051e-02, 1.24396791e-03,
       -8.58812407e-03, -1.93145424e-02, -1.55113667e-04,
       -1.41102411e-02, -1.50943855e-02, -1.61166713e-02,
       -2.99989805e-02, -2.05832347e-02, -1.37774823e-02,
       -5.15722949e-03, -1.52450036e-02, -1.08802561e-02,
       -4.25467007e-02, 1.21989641e-02, -3.26707144e-04, 1.72979571e-02,
       7.28007825e-03, -1.92236304e-02, -4.00370313e-03, -1.33978603e-02,
       -3.23551381e-03, -1.04004489e-02, -2.11356655e-02,
       -6.48427103e-03, -1.08308643e-02, 7.07429275e-03, -2.16054879e-02,
       -1.95071306e-02, -2.57608071e-02, -8.79136194e-03,
       -3.33236270e-02, 2.54897284e-03, 1.28921615e-02, 3.44185601e-03,
       -2.81354296e-03, -9.36766807e-03, 4.44209855e-03, 4.37344285e-03,
       7.70476693e-03, -1.54685332e-02, 2.20704284e-02, -1.31614134e-02,
       6.86299708e-03, -2.83084810e-04, -3.29733863e-02, -2.39222236e-02,
       -2.36362666e-02, -7.66956899e-03, -1.13652233e-04,
       -6.82169013e-03, 2.32838979e-03, -8.20426457e-03, -1.27765043e-02,
       -4.43385877e-02, -2.01539937e-02, -1.92763768e-02, 8.00667389e-04,
       -2.55566352e-04, 7.57774152e-03, 1.46138370e-02, 1.23280669e-02,
       1.63416308e-03, -2.83076353e-02, -2.88500860e-02, -3.79828997e-02,
       -2.29064655e-02, -2.54111551e-02, -3.04921647e-03, 4.61216597e-03,
       -1.41936848e-02, -2.02454291e-02, -3.47419493e-02,
       -2.75693815e-02, -3.80769856e-02, -1.28291892e-02,
       -1.74749307e-02, -2.60328762e-02, 1.27962539e-02, 4.43649944e-03,
       7.37650204e-04, -4.77936603e-02, -1.61529388e-02, -2.36270018e-03,
       1.46245165e-02, -7.65389646e-04, -4.37935740e-02, -1.19542833e-02,
       -6.95725111e-03, -1.30113726e-03, -4.11724821e-02,
       -2.58585196e-02, -1.84140038e-02, -4.92138742e-03,
       -8.36982019e-03, -7.45236874e-04, 6.20317645e-03, 2.68831593e-03,
       -1.94385331e-02, -3.60464305e-02, -7.35849328e-03, 2.17863591e-03,
       1.95886102e-02, 1.57439504e-02, -2.29663569e-02, -8.57341010e-03,
       1.36047532e-03, 1.58766154e-02, -3.22696008e-02, -2.78681908e-02,
       -1.43784266e-02, 1.62432045e-02, -5.60225360e-03, 4.77201492e-03,
       1.27370683e-02, -1.40269042e-03, 5.01797535e-03, -1.28799193e-02,
       -1.61857177e-02, -8.65904335e-03, -2.43074377e-03,
       -3.23790195e-03, -8.56309314e-04, 2.30744295e-02, -2.43230239e-02,
       -2.28010956e-03, -1.30439140e-02, -1.26007870e-02,
       -1.34527637e-02, -1.83952786e-02, -3.02241538e-02, 1.11243147e-02,
       1.44142499e-02, 1.10316193e-02, 2.23402195e-02, -5.47860237e-03,
       -3.41399163e-02, -7.25058652e-03, 1.73824020e-02, 2.02380046e-02,
       2.73304596e-03, -8.22075643e-03, -2.20976397e-02, -5.21521259e-04,
       -2.59735696e-02, -1.92519724e-02, -4.04899800e-03, 1.46127138e-02,
       -7.93698896e-03, 3.88629909e-04, 1.19440174e-02, 1.92453770e-03,
       1.49714826e-02, -9.36731976e-03, -8.55933831e-05, -3.92028689e-03,
       -5.86807309e-03, -2.12513972e-02, -2.04752870e-02,
       -5.51851932e-03, -1.78281274e-02, 1.92344300e-02, 3.24155041e-03,
       -2.50577461e-03, -5.65417251e-03, -5.05892327e-03,
       -1.48708969e-02, -1.24976772e-03, -1.20387105e-02,
       -1.25484709e-02, 5.96665312e-03, -2.75840331e-03, 6.59622531e-03,
       -5.47011942e-03, 8.16110801e-03, -2.83431611e-03, 4.21494618e-03,
       -2.34997496e-02, -2.56716702e-02, 5.89983398e-03, -8.72999616e-03,
       5.40571706e-03, -7.59742595e-03, 5.96760865e-03, -2.51831277e-03,
       -1.45804649e-02, 4.71381610e-03, -7.20264344e-03, -9.90090892e-03,
       -3.06003094e-02, -1.46025261e-02, 6.65370887e-03, 2.14349385e-03,
       -1.76661946e-02, -1.23483548e-02, 2.88817436e-02, 2.03698408e-02,
       1.72141450e-03, -2.56036520e-02, 2.42383848e-03, 1.10202720e-02,
       1.73694436e-02, -1.06322644e-02, -2.25610156e-02, -1.93334408e-02,
       -1.14995018e-02, -1.01131871e-02, -3.08433324e-02,
       -7.51681917e-04, 4.23486158e-03, -4.37201187e-03, -8.61073565e-03,
       -9.99310240e-03, 2.63029505e-02, 8.47719330e-03, 2.05479711e-02,
       -7.91327935e-03, 1.04000540e-02, 4.78615519e-03, 1.74752553e-03,
       -1.17414678e-02, -1.97715871e-02, 1.32908635e-02, 9.55964159e-03,
       -7.79035967e-03, -1.95114706e-02, -8.65502562e-03, 5.31372381e-03,
       9.88072809e-03, -1.36956666e-02, -1.95609797e-02, -5.88795496e-03,
       -1.24427667e-02, -1.42653752e-02, -9.46637895e-03, 1.46525726e-02,
       5.64527931e-03, 5.84092597e-03, -1.15724197e-02, -2.42720582e-02,
       4.75357845e-03, 4.03558929e-03, -1.38400504e-02, -1.31918071e-02,
       -1.16367741e-02, 3.25191231e-03, -1.91105052e-03, -2.78697852e-02,
       -3.21412832e-02, -7.18730222e-03, -1.09181758e-02,
       -8.26304592e-03, -3.83134224e-02, 5.12199430e-03, -1.53490342e-02,
       -1.83360616e-03, -3.46791744e-02, 3.24583403e-03, 2.01811418e-02,
       1.59283821e-03, 2.72245575e-02, -4.37319744e-03, 3.57128456e-02,
       2.38918457e-02, 6.88065123e-03, -5.96715603e-03, -2.79335510e-02,
       -3.90497805e-03, -2.71447971e-02, 6.95745833e-03, -4.37104004e-03,
       -1.41614592e-02, -1.07187377e-02, -6.16117939e-03,
       -3.11314166e-02, -5.21866232e-03, 8.20192322e-03, -1.13187889e-02,
       3.58114503e-02, -4.46714722e-02, 1.78546309e-02, -5.81530985e-05,
       -5.11228945e-03, -2.30352692e-02, -3.80738117e-02,
       -2.06580907e-02, -2.71702800e-02, 1.05785131e-02, -1.24982512e-02,
       -1.05425511e-02, -2.95912400e-02, -6.64072903e-03,
       -3.12605612e-02, -1.48941483e-02, -5.85125992e-03,
       -1.61229242e-02, -2.30173976e-03, -5.00770994e-02,
       -1.34445578e-02, -2.08140798e-02, 1.00238379e-02, 3.63229983e-03,
       -5.03765000e-03, -3.60773690e-03, -2.19250116e-02,
       -1.31144160e-02, -9.28171445e-03, 7.91371800e-03, -1.73366740e-02,
       1.16828643e-02, -2.43348302e-03, -1.70482472e-02, -4.21115756e-03,
       -1.72489155e-02, 1.00325849e-02, -5.33348694e-03, -7.43046636e-03,
       -2.75582280e-02, 1.87463313e-02, -5.03417477e-03, -9.11139511e-03,
       -1.71476440e-03, -9.29904077e-03, 1.79929857e-03, -5.10866707e-03,
       -6.22401526e-03, -1.48767680e-02, 6.44878531e-03, -1.00399144e-02,
       -1.95170892e-03, 1.97443515e-02, -1.55208143e-03, -1.75328776e-02,
       -7.57614104e-03, 1.43317021e-02, -1.30014273e-03, 2.48325050e-05,
       -2.50357349e-04, -1.38966218e-02, 1.00544104e-02, 1.19053610e-02,
       -2.08029593e-03, -3.85476463e-02, 5.74942073e-03, 9.16294288e-04,
       -1.42954784e-02, -1.03238365e-02, 1.78062287e-03, 1.87246297e-02,
       1.38217043e-02, 1.00899562e-02, -1.00692594e-02, 1.14132566e-02,
       8.48501641e-03, 1.63601227e-02, -4.03364748e-03, -1.21537279e-02,
       3.75230273e-04, 6.50024507e-03, 1.39883123e-02, -2.71616373e-02,
       3.83611536e-04, 7.44840456e-03, 7.59215653e-03, -4.15875390e-03,
       -4.16205870e-03, -6.20160624e-03, 1.67204975e-03, -1.63673423e-02,
       -1.57154594e-02, -6.15152856e-03, 9.63318348e-03, 3.08530871e-03,
       -5.74290752e-03, 3.60547286e-03, 1.77332119e-03, 8.52489565e-03,
       8.95025861e-03, 1.49873737e-02, 2.91949953e-03, 4.11656685e-03,
       1.34947589e-02, 5.45840536e-04, -5.64948563e-03, -7.95100350e-03,
       -2.57542910e-04, -1.30810672e-02, -1.65165719e-02,
       -1.70276910e-02, 2.31554033e-04, 2.61715204e-02, 5.66004077e-04,
       -4.12245002e-03, -6.08269183e-04, -1.45967985e-02,
       -1.06692528e-02, -1.18259154e-02, -1.10395998e-02, 7.58827105e-03,
       1.56970508e-02, -1.63344983e-02, 2.41615489e-04, -3.60903284e-03,
       -6.01677783e-03, 1.76635347e-02, -6.82167988e-03, -1.64007209e-02,
       -8.65419395e-03, 3.77485366e-03, -1.03112590e-02, -1.12904962e-02,
       1.23195387e-02, 6.07232703e-03, 4.43320759e-02, -1.72563121e-02,
       -3.59997223e-03, -2.02898937e-05, -2.17820331e-03,
       -1.73986126e-02, -6.76563429e-03, 4.76029934e-03, -1.09208031e-02,
       -1.95733923e-03, -3.19452584e-02, -2.01109871e-02,
       -1.36979092e-02, -8.75558518e-03, -5.83262416e-03,
       -1.78395683e-04, 2.82654352e-03, 1.72960828e-03, 1.75031591e-02,
       -5.50559396e-03, 2.20563095e-02, 5.21327183e-03, 1.47919003e-02,
       7.92303775e-03, -3.25698568e-03, 9.85905621e-03, 7.36091565e-03,
       1.54012600e-02, -1.26641812e-02, -7.68191705e-04, -4.66513028e-03,
       8.53438117e-03, -4.72380314e-03, -5.67216799e-03, -6.79791498e-04,
       -1.78984366e-02, -1.22946827e-02, -1.07092299e-02, 4.53799590e-03,
       -2.30004806e-02, -8.99182446e-03, -9.45501309e-03, 3.42763215e-03,
       5.19000040e-03, 2.70689430e-04, -5.90505078e-03, 1.79448426e-02,
       2.44176108e-02, 4.16362891e-03, 1.63415521e-02, 4.03652480e-03,
       -1.92236863e-02, -2.17482112e-02, -2.49900650e-02,
       -1.40165705e-02, -4.59299562e-03, 7.25187594e-03, -2.35544909e-02,
       -1.27063710e-02, -1.34817539e-02, -5.78441005e-03,
       -5.08276187e-03, -2.84894332e-02, -5.40341018e-03,
       -1.90211087e-02, 1.35132484e-02, 1.66248661e-02, 4.85554570e-03,
       -9.28239524e-03, 1.12120062e-02, 3.52063552e-02, 1.22251324e-02,
       3.67250061e-03, -1.75319612e-02, 2.66259592e-02, 2.78355218e-02,
       9.37936548e-03, 6.94224029e-04, -4.13946807e-02, -2.35159546e-02,
       -2.98365094e-02, -2.67276224e-02, -3.85702699e-02,
       -4.65494487e-03, -5.57942642e-03, -2.01164670e-02,
       -4.66836765e-02, -1.52312508e-02, 1.24867363e-02, 1.89637719e-03,
       -1.90225989e-02, -3.90972309e-02, -2.35389583e-02,
       -2.51905527e-03, -1.11307129e-02, -3.73299308e-02,
       -2.81237881e-03, 1.63012929e-02, 1.02119725e-02, 1.07753777e-03,
       -2.33030282e-02, -4.96852072e-03, -3.29413894e-03,
       -8.41506384e-03, -1.59087423e-02, -5.40061714e-03, 3.16222161e-02,
       3.46787237e-02, 5.19410633e-02, 3.08614932e-02, -1.59037090e-03,
       -2.21367758e-02, -2.73345038e-03, -1.40123237e-02,
       -1.44900763e-02, -9.09136515e-03, 9.26858746e-03, -1.06381308e-02,
       -3.73605490e-02, -3.50162461e-02, -2.55746972e-02,
       -3.27992663e-02, -3.26948613e-02, -5.59397181e-03, 9.97548550e-03,
       6.67861244e-03, 5.79721760e-03, -1.53880538e-02, -6.73691323e-03,
       -2.74431203e-02, -2.43227798e-02, -1.88638885e-02,
       -1.31112374e-02, -2.21846085e-02, -2.15881616e-02, 2.36980757e-03,
       -2.12780070e-02, -1.86601654e-02, -3.16044986e-02,
       -2.06824001e-02, -2.53459420e-02, 1.51211955e-02, 1.15321483e-02,
       3.47466930e-03, -6.59593940e-03, 5.65492921e-03, 1.06708352e-02,
       1.21549256e-02, 6.18634513e-03, -1.64050870e-02, -2.26914082e-02,
       3.77900054e-04, -1.07124513e-02, 8.85083433e-03, -4.90870140e-02,
       -9.89573076e-03, -2.92659458e-02, -2.57173199e-02,
       -3.13561782e-02, -1.73353925e-02, 1.77838709e-02, -1.04712381e-03,
       -6.27845060e-03, -3.74868978e-03, 6.32416559e-05, -6.48732675e-05,
       -1.74058788e-02, -2.21038237e-02, 1.16328225e-02, 2.87032574e-02,
       3.25537496e-03, -1.81916039e-02, -4.26037423e-02, -6.94665033e-03,
       -2.69222017e-02, -2.12402381e-02, -1.99836455e-02, 3.85236926e-03,
       1.68619268e-02, -8.53442308e-03, -1.45987356e-02, -2.26491801e-02,
       -1.28533794e-02, -2.63573192e-02, -1.19187925e-02,
       -1.02324663e-02, -1.54117504e-02, 1.18040377e-02, -8.60382151e-03,
       -3.22801173e-02, -5.86678721e-02, -9.34799947e-03,
       -3.08168046e-02, -1.72741581e-02, -3.18122022e-02,
       -1.51452217e-02, 1.54552320e-02, -6.55839825e-03, -1.98004376e-02,
       -7.04632550e-02, -2.83777155e-02, -2.25980487e-02, 2.82004266e-03,
       -3.02638300e-02, 1.65852625e-02, 1.46245072e-02, -6.81931619e-03,
       -1.14854267e-02, -3.59599479e-02, -6.99497433e-03, 4.10916237e-03,
       1.40321329e-02, 9.33594350e-03, -1.41291562e-02, -1.06149176e-02,
       -6.43531885e-03, -8.43782257e-03, -4.81470376e-02,
       -2.18756106e-02, -8.83567426e-03, 1.30522316e-02, -1.47350430e-02,
       2.83746351e-03, 1.07644480e-02, -5.03441412e-03, -1.70465708e-02,
       -5.02233207e-02, -2.60783359e-02, -6.83762645e-03, 1.62723754e-02,
       -5.16948197e-03, -1.08194184e-02, -8.63896869e-03,
       -3.39642987e-02, -2.99807768e-02, -4.14816216e-02,
       -1.68953314e-02, 6.86577661e-03, 2.34380960e-02, -1.83461290e-02,
       -1.18228802e-02, 5.51215094e-03, 2.27990258e-03, 2.17387527e-02,
       -4.24289238e-03, -1.85642671e-02, 3.51527589e-03, 1.39085548e-02,
       -4.40047443e-05, -1.88632850e-02, -1.47719309e-02,
       -1.04406187e-02, 9.25938133e-03, -1.79992542e-02, -1.83166880e-02,
       -9.32540745e-03, 1.71801336e-02, -1.71181355e-02, -5.11837145e-03,
       1.31352292e-02, -9.22722835e-03, 7.92861823e-03, 5.05191879e-03,
       9.57882730e-04, 6.12740079e-03, 2.66601779e-02, -1.01346392e-02,
       -3.03948019e-02, -1.61995161e-02, -1.97580084e-02, 1.18476432e-02,
       -1.81512870e-02, -2.10930444e-02, -1.32181654e-02,
       -1.16644828e-02, -4.32077199e-02, 6.66460255e-03, -8.04107543e-03,
       -2.13086810e-02, 1.20654628e-02, -3.18237767e-03, 1.61982644e-02,
       -4.88209259e-03, 3.00422814e-02, 8.01976770e-03, -1.05513753e-02,
       -5.59090450e-03, -3.02823558e-02, 1.45849371e-02, -1.16512943e-02,
       3.38418642e-03, -1.12857344e-02, 1.33087607e-02, -6.95828721e-03,
       -1.40401646e-02, -1.13640921e-02, -1.22236228e-03, 4.18467969e-02,
       -1.50963739e-02, -7.05955131e-03, -1.24162100e-02, 9.85232182e-03,
       -3.42473872e-02, -1.86099596e-02, 3.36218439e-03, -8.62889644e-03,
       1.49875768e-02, -2.57874071e-03, -3.50036449e-03, -7.29870866e-04,
       1.93478204e-02, -3.71422283e-02, -1.27680693e-02, 4.81273746e-03,
       -1.32976240e-02, -5.14238887e-03, -2.66728010e-02,
       -7.55082583e-03, 1.08168675e-02, 5.98049723e-03, -1.26336294e-03,
       2.36523850e-03, 2.45095976e-02, 1.40972156e-02, 1.08882654e-02,
       1.93882827e-03, 1.90906366e-03, 6.51868666e-03, 5.91403386e-03,
       1.18795959e-02, -1.18456120e-02, 6.11067656e-03, -8.58150516e-03,
       -2.59652752e-02, -2.78820004e-02, -1.18447682e-02, 3.38889949e-04,
       -8.27396580e-04, -2.58165579e-02, -1.35095734e-02, 1.04233194e-02,
       -1.56202186e-02, -1.33033637e-02, -2.09752135e-02,
       -1.14437578e-04, 2.18749675e-03, 3.20165465e-03, -1.12292394e-02,
       1.48501582e-02, 2.27334891e-02, 5.83953829e-03, -9.99608822e-03,
       -1.10942181e-02, -9.71295871e-03, -4.41305991e-03,
       -8.74707010e-04, 4.99247666e-03, 1.18183149e-02, 2.98709013e-02,
       2.76538990e-02, -5.22038434e-03, -3.86997908e-02, -5.76918758e-03,
       -7.86569063e-03, 4.85013146e-03, 3.74888885e-03, -1.34125352e-02,
       6.66671293e-03, -3.25520337e-03, -1.55995870e-02, -1.03061330e-02,
       -1.78110339e-02, -1.67585760e-02, -1.00282570e-02,
       -5.55597898e-03, -2.31887326e-02, -2.18281485e-02,
       -5.66102006e-03, -1.51890377e-02, -5.40341325e-02,
       -1.88282263e-02, -1.90845542e-02, -1.53268538e-02,
       -2.25842427e-02, 1.04730856e-02, 1.64611097e-02, 4.23278334e-03,
       4.19047568e-03, -3.58864069e-02, 3.73716746e-03, 1.76544872e-03,
       1.21569941e-02, 3.97416344e-03, -7.64876697e-03, -5.92571392e-04,
       -6.97965967e-03, -9.36687575e-04, 1.15725654e-03, -1.85575094e-02,
       -2.70425715e-02, -1.20117916e-02, -1.32909659e-02,
       -1.53874857e-02, 3.02145653e-03, 6.26754132e-04, -5.53795509e-03,
       -3.40432152e-02, -5.83137898e-03, -6.06811279e-03,
       -1.47754815e-03, -4.53970768e-03, -1.69795435e-02,
       -2.09339638e-03, 5.18604321e-03, 4.08006087e-03, -9.50019062e-03,
       -9.34517756e-03, -1.81787740e-02, -1.32091083e-02,
       -2.21840292e-02, -1.10176778e-04, 8.28887336e-03, -5.64610166e-03,
       2.61233635e-02, 1.67340618e-02, -1.73193738e-02, -1.95178129e-02,
       -3.16720409e-03, -3.67233041e-03, -3.49163520e-03, 3.00666015e-03,
       -5.53648267e-03, 2.04758346e-02, 1.39759984e-02, 7.99688714e-05,
       -1.31481076e-02, 3.64595279e-03, 9.73890012e-04, -2.02438571e-02,
       3.52287688e-03, -6.69872621e-03, -3.50842625e-03, -2.88414788e-02,
       -3.43648205e-03, -2.36519426e-03, -1.07733821e-02,
       -3.38840373e-02, -1.02003943e-02, 2.27076979e-03, -2.75081843e-02,
       -1.08237369e-02, -5.08040842e-03, -9.89089534e-03,
       -2.11208612e-02, -2.25288663e-02, -2.74234731e-02, 4.88542952e-03,
       2.14985143e-02, 4.93927998e-03, 1.36807072e-03, 2.64870375e-03,
       7.04405596e-03, -6.71925163e-03, 6.92290207e-03, 5.08467807e-03,
       -3.29803186e-03, 6.93177665e-03, -4.37764189e-04, 9.08813067e-03,
       5.68733038e-03, 1.43411225e-02, 2.50668963e-03, 1.16568273e-02,
       -1.01368614e-02, 8.89130868e-03, 1.87519453e-02, -5.52825769e-03,
       -6.50746282e-03, -7.69746071e-03, -6.74489839e-03,
       -3.79538797e-02, -2.40727179e-02, 2.67582334e-04, 6.88868968e-05,
       1.99720711e-02, 2.04016664e-03, -1.82367465e-03, -4.40924987e-02,
       -7.22553639e-04, -1.87633317e-02, -4.87334188e-03,
       -1.08310133e-02, -2.54904274e-02, 8.00496340e-03, 1.23183979e-02,
       -5.98360132e-03, -7.59601220e-03, -5.95942838e-03,
       -4.74774931e-03, 1.40819931e-02, -6.23948406e-03, -2.75190617e-03,
       2.64782216e-02, -6.95088692e-03, -7.36768823e-03, -8.87723081e-03,
       -7.38126226e-03, -3.75131262e-03, 3.67324660e-03, -8.22518580e-03,
       -3.93619156e-03, 6.31801225e-03, 1.89141911e-02, -1.90838779e-04,
       -2.27222871e-02, -9.57619958e-03, -1.58535899e-03,
       -6.34773634e-03, -6.30520575e-04, -7.12206028e-03,
       -1.00382166e-02, -1.15095312e-03, -1.66325690e-03, 8.05959944e-03,
       -8.70936271e-03, 3.90101178e-03, 1.09653389e-02, -6.37311209e-03,
       1.38538918e-02, 2.09275521e-02, -9.25614778e-03, -5.17295673e-03,
       -1.40132997e-02, -2.51615960e-02, -7.77679915e-03, 3.54950293e-03,
       8.34616087e-03, 4.38395393e-04, 1.34177506e-02, -4.67574270e-03,
       -1.97381922e-03, -1.73641369e-03, 7.95114040e-03, -2.79522222e-03,
       1.34576466e-02, 2.89214822e-03, -1.11532782e-03, 2.12005116e-02,
       -9.39203892e-03, 3.97356832e-03, -9.94088594e-03, -1.99576132e-02,
       -1.10937022e-02, 1.36181004e-02, -7.10325502e-03, -2.45054625e-02,
       1.41695263e-02, -3.18032247e-03, 1.64358760e-03, -9.40221734e-03,
       7.34679913e-03, -1.43360486e-03, 1.43925808e-02, -1.61599908e-02,
       8.80430918e-04, 2.00981908e-02, 1.24896914e-02, -9.31457151e-03,
       1.34977736e-02, 3.17088366e-02, 1.15147373e-02, 1.82028413e-02,
       8.56652111e-03, -2.02531479e-02, -6.79962896e-03, -8.31980631e-03,
       -1.54181663e-02, 1.70553029e-02, 2.33080927e-02, -3.38928471e-03,
       -6.92860549e-03, -1.32724298e-02, -2.05460042e-02, 1.45054674e-02,
       1.92925446e-02, -1.80448815e-02, -4.87064151e-03, 2.26316936e-02,
       4.70528007e-03, 1.52856670e-02, -1.76635291e-03, -1.15483860e-02,
       -2.11295229e-03, -2.43923836e-03, -2.32788175e-02,
       -2.17351764e-02, 8.77909828e-03, 4.26769117e-03, 6.68156007e-03,
       -2.38033431e-03, -2.68120202e-03, -2.69281603e-02,
       -8.77965800e-03, -1.47750331e-02, -2.27945633e-02,
       -6.98272255e-04, 1.97918471e-02, 1.11420080e-02, 2.87321280e-03,
       1.05418516e-02, 1.93613898e-02, 4.00224887e-02, 3.10083677e-04,
       -4.15016152e-03, 5.87046146e-03, 2.56938450e-02, 2.84281783e-02,
       6.46816287e-03, -3.98764648e-02, -2.81473268e-02, -1.01129916e-02,
       -6.48410991e-03, -6.34169765e-03, -2.36563999e-02,
       -8.09113402e-03, -2.68228315e-02, -4.47093956e-02,
       -6.50137989e-03, 7.67615065e-03, 1.86991692e-02, -9.59488004e-03,
       -2.50708349e-02, -7.29262969e-03, -5.88088937e-04,
       -6.95272675e-03, -2.00969763e-02, -1.49409333e-02,
       -6.72175270e-03, 1.37416867e-03, -2.48394217e-02, -4.32719924e-02,
       -7.33121345e-03, -4.08384949e-03, -4.39152122e-04,
       -1.67539958e-02, 2.27271337e-02, 2.73692086e-02, 1.97698213e-02,
       2.19440702e-02, 1.37006235e-03, 2.49386635e-02, -2.16699977e-04,
       -5.77471312e-03, 6.42276183e-03, -3.12398337e-02, -1.15484539e-02,
       -9.41192824e-03, -2.21262313e-02, -3.97367589e-02,
       -1.35714673e-02, -2.80222781e-02, -2.26190481e-02,
       -4.70553488e-02, -9.62544326e-03, 1.00661181e-02, 1.02690123e-02,
       -1.19243236e-02, -2.01506075e-02, 1.17777660e-02, -2.08703612e-04,
       4.26163105e-03, -1.41046504e-02, 1.53761990e-02, 1.37245851e-02,
       -6.73749670e-03, 1.90131215e-03, -2.13168934e-02, 6.54641818e-03,
       3.04952101e-03, -2.23145681e-03, -5.31157013e-03, 9.48940031e-03,
       1.95915084e-02, 1.04112132e-02, -3.71861504e-03, 7.50472210e-03,
       9.60659981e-03, 4.44136420e-03, -9.66642238e-03, 3.32458032e-04,
       -3.36033143e-02, -1.26247955e-02, -1.81469880e-02,
       -3.10824066e-02, -1.51998065e-02, -1.19957812e-02,
       -8.03245977e-03, -3.30251129e-03, -2.17117891e-02,
       -2.12968756e-02, -1.65977199e-02, -1.81889944e-02,
       -2.61982381e-02, 1.29534323e-02, -4.60824324e-03, -1.87690128e-02,
       -8.46822653e-03, -1.85294878e-02, -1.82923372e-03, 1.07785994e-02,
       -1.42809097e-03, -1.82900764e-02, -4.81106937e-02, 4.23330022e-03,
       -2.14711223e-02, -5.86348679e-03, -6.47902349e-03, 1.55938603e-03,
       1.09804124e-02, 1.09372577e-02, -2.99890316e-03, -4.69529331e-02,
       9.92118847e-04, -5.65865962e-03, 3.12521048e-02, 7.62450183e-03,
       -4.34756184e-05, -4.60153352e-03, -2.09643096e-02,
       -2.77754646e-02, -3.81018706e-02, -1.41505813e-02,
       -3.10979504e-02, -2.35665217e-02, -1.19805783e-02,
       -2.37387642e-02, 1.20435969e-03, -1.89897865e-02, -2.16616318e-02,
       -4.91217375e-02, -6.62091887e-03, -5.36856940e-03, 2.99840281e-03,
       -2.00441759e-02, 1.05619030e-02, 1.06303468e-02, 5.95895341e-04,
       4.71744192e-04, -3.32142748e-02, -1.53472871e-02, 4.78383573e-03,
       2.98239142e-02, 7.51055451e-03, 1.83624104e-02, -1.21475768e-03,
       -1.49304131e-02, -2.17358097e-02, -2.71538701e-02,
       -2.76709907e-02, -7.15011673e-04, 2.58456767e-02, 1.75071415e-02,
       -2.28839368e-02, 1.07651483e-02, -9.04695690e-03, -1.62431505e-02,
       -4.34607938e-02, -2.47442685e-02, -8.02575052e-03, 1.62427258e-02,
       -2.57879756e-02, -2.88373698e-02, -8.84072296e-03,
       -3.70472521e-02, -5.51584587e-02, -4.82878052e-02,
       -4.87631150e-02, -9.86298174e-03, 9.00003873e-03, -2.13985257e-02,
       3.16869095e-03, 3.74172186e-03, -1.39658777e-02, 2.85777519e-03,
       -1.86314918e-02, 7.59609463e-03, 1.00978827e-02, 2.93534175e-02,
       1.46853942e-02, -1.02408454e-02, -7.93348625e-03, -1.91808529e-02,
       3.78693291e-03, -1.72829702e-02, -1.34686138e-02, -3.13478289e-03,
       -9.41619463e-03, -2.52162591e-02, -2.58473065e-02,
       -1.03259347e-02, -2.23238785e-02, -3.50922416e-03,
       -2.47498192e-02, -4.12347168e-03, 2.85684387e-03, 9.77739599e-03,
       -2.24430654e-02, -2.24040896e-02, -2.41764747e-02,
       -1.22043369e-02, -5.81312226e-03, -5.48731163e-02,
       -2.65458431e-02, -1.65745486e-02, -2.87872390e-03,
       -2.51515415e-02, -1.86230373e-02, -1.24912094e-02, 5.96290734e-03,
       3.79537120e-02, -1.82986092e-02, -1.16227260e-02, 1.21373720e-04,
       4.17676708e-03, -1.53575717e-02, -2.57320516e-02, -3.85991926e-03,
       -4.38700151e-03, -1.20201856e-02, -8.17530509e-03, 1.69565473e-02,
       2.14308081e-03, 1.01310201e-02, -1.40352286e-02, -2.02154052e-02,
       -1.31141925e-02, 1.44535042e-02, 1.07116736e-02, -4.34752665e-02,
       -2.21412480e-02, 1.07255466e-02, 4.13577538e-03, -2.52535846e-03,
       -2.27221269e-02, -1.45936878e-02, -1.80611927e-02,
       -2.68428251e-02, -3.17675024e-02, -7.65805133e-03, 1.21357315e-03,
       -1.96439014e-05, -1.30664045e-02, 8.84778053e-03, 1.42155699e-02,
       6.96060108e-03, -2.12862790e-02, -1.36071611e-02, 1.85920130e-02,
       2.39641452e-03, -1.05177017e-03, -1.15439128e-02, 7.65540125e-03,
       1.23745771e-02, -4.42689378e-03, -4.51939693e-03, 6.79525035e-03,
       7.73385353e-03, 7.56853353e-03, -2.34011887e-03, -6.14539674e-03,
       1.65260839e-03, 5.22496831e-03, -1.48457000e-02, -3.10228188e-02,
       -2.77870167e-02, -6.09063823e-03, -5.54985926e-03,
       -4.66849841e-03, 2.03855266e-03, -5.15054632e-03, -1.02448910e-02,
       -2.25516763e-02, -5.67084318e-03, -4.18961458e-02,
       -8.59070010e-03, -1.27830859e-02, -1.48416695e-03,
       -1.14965271e-02, -7.99662434e-03, 1.98562052e-02, 1.05652483e-02,
       1.89516768e-02, 1.09180622e-02, 4.10769787e-03, 1.07097486e-02,
       9.24796704e-03, -1.31942390e-03, -1.30338203e-02, -3.59849102e-04,
       1.42551716e-02, 4.42477129e-03, -2.84119649e-03, 6.25856454e-03,
       -5.21607231e-04, -1.07598901e-02, -1.93538703e-02, 7.76055362e-03,
       3.77805415e-03, -9.23333224e-03, -1.06554646e-02, -2.16457378e-02,
       -1.26136160e-02, -1.37700792e-02, -1.10882940e-02,
       -7.08895037e-03, -8.20751302e-03, -2.79982970e-03,
       -2.50027087e-02, -3.43863852e-02, -2.80282162e-02,
       -2.43926588e-02, -1.16793578e-02, -2.17764322e-02,
       -1.94252711e-02, -9.17512085e-03, 1.10537941e-02, 2.47191451e-02,
       2.60522384e-02, -1.10530192e-02, 1.53589332e-02, 8.14491604e-03,
       -1.17163192e-02, -4.05687513e-03, 2.05739844e-03, 2.53209937e-02,
       2.61292737e-02, 2.05179770e-02, -4.14559711e-03, 1.72594264e-02,
       4.82235290e-03, -1.69281440e-04, -6.72187004e-03, -1.08469026e-02,
       4.74450830e-03, 1.71686013e-04, -6.75940001e-03, -4.86924499e-02,
       -1.67759378e-02, 5.57915308e-04, -1.83310565e-02, -3.07209138e-02,
       -1.48661975e-02, 1.31092584e-02, -2.49848980e-03, -1.62660051e-02,
       -5.90456128e-02, -1.50570441e-02, -2.11292077e-02,
       -2.10002996e-02, -3.21173072e-02, 1.61681895e-03, 1.84756741e-02,
       1.14582451e-02, -2.81302072e-03, -2.35906919e-03, 8.89640488e-03,
       1.67331919e-02, 2.50719837e-03, -1.27843563e-02, 1.70602053e-02,
       2.30166949e-02, 9.35950689e-03, 1.06851812e-02, 3.81370038e-02,
       5.92915528e-03, -5.54816937e-03, -2.28318926e-02, -1.36807924e-02,
       -1.90103613e-02, -4.72150929e-03, 2.93029612e-03, -2.46752575e-02,
       -2.79537030e-02, -6.91775931e-03, -8.40527005e-03,
       -2.49272939e-02, -3.92867178e-02, -1.61513705e-02,
       -1.09163569e-02, 1.73341599e-03, -1.59670971e-03, -1.35407029e-02,
       3.29256436e-04, 1.42216943e-02, -1.43818585e-02, -2.31026672e-02,
       -6.03342103e-03, -1.32482406e-03, 8.77621584e-03, -1.49966739e-02,
       4.92350897e-03, -3.96470493e-03, -1.88858751e-02, -2.47890502e-02,
       -1.45813543e-03, 4.99498192e-03, 1.85081679e-02, 1.56641193e-02,
       -1.06025580e-02, -1.47610595e-02, 2.63037160e-03, -1.00332557e-03,
       1.15017835e-02, 7.90596474e-03, -1.90112472e-03, -8.07955489e-03,
       1.39093623e-02, -1.01312129e-02, -2.20607538e-02, -8.08610488e-03,
       1.07753938e-02, -1.86166186e-02, -3.46827880e-03, 1.09073343e-02,
       -2.42339680e-03, 1.27815912e-02, -1.65227260e-02, -1.96417216e-02,
       -8.60706717e-03, -1.08088590e-02, -4.25966782e-03, 4.75175958e-03,
       -4.21373267e-03, 8.30258150e-03, 2.69832760e-02, 3.84417549e-03,
       -2.78242081e-02, -1.15457904e-02, 1.18465126e-02, 4.40559769e-03,
       -6.42581517e-03, 2.77867075e-03, 8.22069868e-03, 2.17105579e-02,
       -4.11142362e-03, 1.92525089e-02, -2.65269936e-03, 1.59949884e-02,
       1.41011849e-02, 3.95056093e-04, -4.71407128e-03, 2.05242145e-03,
       7.93385785e-03, 4.17181104e-03, -1.52674783e-02, -9.45557188e-03,
       -2.21447796e-02, -5.41590573e-03, -1.12836575e-02,
       -1.93754258e-03, -5.81987249e-03, 1.36130732e-02, -5.80625702e-03,
       -1.58113380e-05, -1.38474414e-02, 1.13086286e-03, 5.75397257e-03,
       -1.27350353e-03, -7.59552652e-03, 1.29998820e-02, 4.41752374e-03,
       -2.43553382e-04, 6.84507797e-03, -7.39796553e-03, 5.03318338e-03,
       1.39931925e-02, -1.57873593e-02, -1.63802747e-02, 1.03798984e-02,
       1.36381241e-05, 1.85642187e-02, 1.79465786e-02, 3.76231107e-03,
       -9.64784622e-03, 2.72231968e-03, -2.17189882e-02, -2.28641392e-03,
       5.81440690e-04, 1.13048069e-02, -6.96392730e-03, -2.94648111e-02,
       -1.27532007e-02, 1.86683622e-03, 3.65784299e-03, -3.70972510e-03,
       -8.95302335e-04, 1.34831397e-02, 1.83662716e-02, 7.09327823e-03,
       -4.55845557e-02, -8.08687508e-03, -1.80807116e-03,
       -7.31369620e-03, -1.49515830e-02, -8.44443683e-03, 7.71041075e-03,
       1.54705802e-02, -6.74114004e-03, 5.09584649e-03, 6.28629280e-03,
       -7.64184733e-05, 1.70415104e-03, -1.17739663e-02, -6.14771945e-03,
       5.19685913e-03, 1.96423102e-02, 2.73165846e-04, -1.49698630e-02,
       -3.75229195e-02, -6.95173535e-03, -7.82511197e-03,
       -1.39935315e-02, 3.34994122e-03, 1.46809481e-02, 3.72789204e-02,
       9.44181997e-03, -3.66070904e-02, -1.97408348e-02, 4.78612725e-03,
       -6.69433549e-03, -1.86077468e-02, -2.50694379e-02, 6.42588455e-03,
       2.83324830e-02, 9.63647757e-03, -4.23758803e-03, -3.39341238e-02,
       -4.70766379e-03, -1.74433533e-02, -4.35851775e-02,
       -2.81530507e-02, -3.18563581e-02, -2.05597337e-02, 2.85043148e-03,
       9.36691742e-03, -3.37243918e-03, 4.05405695e-03, -7.46148359e-03,
       -2.86298227e-02, 5.74986730e-03, 2.00531073e-02, 2.44664680e-02,
       1.69556923e-02, 2.08574794e-02, 5.71334641e-03, 7.65034743e-03,
       -4.58035246e-03, -1.49981063e-02, -9.33694933e-03,
       -2.56601889e-02, -2.55081095e-02, -3.75373363e-02, 3.43664060e-03,
       -2.37299297e-02, -1.25941886e-02, -7.56554399e-03,
       -1.81281157e-02, 2.03644857e-02, -6.19462831e-03, -1.03186246e-03,
       -1.67840272e-02, 3.22956741e-02, -2.77610309e-02, -1.00656657e-03,
       3.40401265e-03, -2.66951579e-03, -1.11214463e-02, 4.51186765e-03,
       -2.68108025e-03, -7.30779767e-03, -1.96898300e-02,
       -1.14410156e-02, -8.16122722e-03, -1.42761916e-02,
       -3.26008163e-02, -7.30115175e-03, 2.39618011e-02, 1.52920401e-02,
       1.44372473e-03, -1.67880431e-02, 3.16370428e-02, 2.27318350e-02,
       1.84014644e-02, -4.87501873e-03, 1.62537082e-03, -6.45835884e-03,
       -1.24164419e-02, -3.19712497e-02, -1.80627350e-02,
       -4.25436310e-02, -6.82195276e-03, -1.69406142e-02,
       -1.51533149e-02, 1.85269897e-03, 2.35620756e-02, 3.97525122e-03,
       -1.09828897e-02, -2.70985719e-02, -1.12009048e-02, 1.58618391e-02,
       1.08344853e-02, 3.68373515e-03, -1.51585117e-02, -2.29846314e-03,
       1.05385494e-03, -1.20962886e-02, -4.46080752e-02, 5.97983040e-03,
       1.33180982e-02, 1.85636766e-02, -1.53225828e-02, 2.69940612e-03,
       -4.63498477e-03, 2.38765706e-03, 8.09960905e-03, 3.11171799e-03,
       1.56786460e-02, 1.94055270e-02, 2.81930976e-02, 9.62404069e-03,
       -2.13317275e-02, 2.48105172e-03, -1.70037884e-03, -1.48655763e-02,
       -4.72573452e-02, -2.42383704e-02, -5.90753183e-03, 8.97427276e-03,
       -2.26876792e-02, -1.49519602e-02, -5.06966095e-03,
       -1.74492244e-02, -3.24796438e-02, -4.25873809e-02,
       -2.25057304e-02, 1.09111890e-02, 2.28290223e-02, -4.21613827e-03,
       1.07214851e-02, 4.43508569e-03, 8.68044049e-03, 3.73256556e-03,
       -2.94886325e-02, 3.48777091e-03, 1.24772443e-02, 1.47126867e-02,
       6.97895372e-03, 2.51336838e-04, 5.70248486e-03, 2.10862048e-02,
       1.43597936e-02, -2.57204846e-02, 2.42877621e-02, 2.50125825e-02,
       3.11547592e-02, -1.11878300e-02, -1.33036813e-02, -1.29292847e-03,
       -3.02797575e-02, -2.44014282e-02, -3.94242667e-02,
       -1.21490974e-02, 9.32693388e-03, 2.30799112e-02, -7.24061625e-03,
       -1.46347424e-02, -2.43637338e-03, -3.56965847e-02,
       -2.66547445e-02, -4.46159206e-02, 5.85440453e-03, 1.66354142e-02,
       2.69739218e-02, -1.48244966e-02, 9.11544729e-03, 2.11543012e-02,
       1.36758350e-02, 1.74598396e-02, -5.20043168e-03, 8.23730044e-03,
       5.35617070e-03, 3.41750160e-02, -1.81294009e-02, 6.35646470e-03,
       4.47549671e-02, 6.71114214e-03, -7.02803722e-03, -1.21523431e-02,
       -1.69977024e-02, -1.37388762e-02, 1.19801527e-02, -3.19328941e-02,
       -2.58943848e-02, 1.89336427e-02, -2.86749826e-04, 3.42992088e-03,
       -3.18421773e-03, -3.19979992e-03, -6.22026669e-03, 1.06901117e-02,
       -2.77451258e-02, 5.42531442e-03, 2.10277978e-02, -1.71195995e-03,
       -1.60572249e-02, -2.66957637e-02, -3.23886424e-02,
       -3.75876613e-02, -1.11235641e-02, -1.31957494e-02, 7.17587909e-03,
       3.92031148e-02, 3.85824428e-03, 1.17796948e-02, -6.34246785e-03,
       3.97253968e-03, -3.30102677e-03, 1.40691800e-02, -1.06564853e-02,
       -8.24700203e-03, 1.55187789e-02, 3.45094991e-03, 1.39205316e-02,
       -2.23361794e-02, -1.19504146e-02, -1.09734368e-02,
       -5.60149224e-03, -1.03752734e-02, 2.03673480e-04, 1.15228090e-02,
       -1.80277172e-02, -1.53845586e-02, -7.54042575e-03,
       -1.79030374e-02, -2.60583237e-02, 1.09042379e-03, -7.88989849e-03,
       -1.94910709e-02, -3.05069219e-02, -1.69851892e-02,
       -6.51722122e-03, -4.18946147e-02, -2.38744710e-02,
       -3.29555422e-02, -6.33066846e-03, -2.21174825e-02, 2.90044188e-03,
       9.80416592e-03, 1.43925743e-02, 2.50035040e-02, -1.00330776e-02,
       -1.30616166e-02, 6.01161830e-03, 9.96328611e-03, 1.29478741e-02,
       -4.73952480e-03, 2.02736454e-04, -2.28084461e-03, -6.70616468e-03,
       -9.43880994e-03, -7.83402752e-03, 8.89347866e-03, 1.24616753e-02,
       7.86503777e-03, 1.03651127e-02, -6.93947030e-03, 1.00840544e-02,
       -8.63118377e-03, -1.27614401e-02, -3.53663564e-02,
       -4.50027995e-02, -2.79835481e-02, -6.51489536e-04, 1.59135219e-02,
       -2.04631104e-03, -1.96230095e-02, -2.29393169e-02,
       -9.15068854e-03, -2.40490697e-02, -3.21172811e-02,
       -3.63324769e-02, 4.40831250e-03, 2.23758351e-03, 1.43646318e-02,
       1.70287155e-02, 4.44873469e-03, 1.16851134e-03, 3.02027119e-03,
       2.03524414e-03, 1.22574540e-02, 3.55495187e-03, 6.51567895e-03,
       3.50072160e-02, 8.82349536e-03, 2.53281761e-02, -2.19356995e-02,
       -1.03223938e-02, -1.96028706e-02, 1.66228153e-02, -4.21602139e-03,
       1.30834002e-02, 9.84572154e-03, -1.88271124e-02, -8.96500517e-03,
       2.82211173e-02, -1.79924797e-02, -2.92896573e-02, -2.76188310e-02,
       -4.37272573e-03, -4.44883946e-03, 1.10439295e-02, -1.34642832e-02,
       3.33469571e-03, -8.22162442e-03, -2.98087019e-02, -2.70824768e-02,
       -5.56632597e-03, -1.74799338e-02, 2.25576144e-02, 4.54877876e-02,
       1.07583208e-02, 1.45890843e-02, 1.69260781e-02, -6.51551876e-03,
       -3.62938456e-03, 1.05325514e-02, 1.36519372e-02, 1.65038984e-02,
       2.86538098e-02, 7.15011673e-04, -1.39706787e-02, 1.54801074e-03,
       -1.81711670e-02, 5.67403110e-03, -6.06355909e-03, 6.60562655e-04,
       9.74745303e-03, 1.87319629e-02, -1.46131846e-04, -1.65333450e-02,
       1.10501228e-02, -2.11801846e-02, -1.52202072e-02, -2.85211462e-03,
       -1.29430369e-02, 7.45425001e-03, 6.44084765e-03, -1.88097861e-02,
       -3.75299603e-02, -5.17795645e-02, -3.09349056e-02,
       -7.99770467e-03, -9.19761974e-03, 5.23006450e-03, 6.89471979e-03,
       2.43565720e-02, 9.17227101e-03, 1.00221299e-02, 3.23876203e-03,
       -3.37105221e-03, 8.46360251e-03, 2.52246647e-03, 2.89241038e-03,
       8.39516614e-03, 1.50679806e-02, -9.02423821e-03, 8.30317102e-03,
       -3.16749956e-03, -3.05156165e-04, -9.22202785e-03, 1.06228318e-03,
       4.35046619e-03, -6.06149621e-03, 3.16894730e-03, -6.03224104e-03,
       -1.39289787e-02, -1.73558351e-02, -2.24565547e-02,
       -3.70063959e-03, -1.01789087e-02, -1.93046797e-02,
       -6.95058238e-03, 5.12578990e-03, -1.25504564e-02, 1.62680820e-03,
       1.94035396e-02, -3.68816452e-03, -8.72850046e-03, -1.28349988e-02,
       -3.78054753e-02, -6.30492438e-03, 5.91596914e-03, 4.32462338e-03,
       -2.37110839e-03, -1.64619293e-02, -2.78804405e-03, 6.38970360e-03,
       1.09229796e-02, -9.31566115e-03, -5.43779111e-04, 1.69004574e-02,
       2.45859735e-02, 5.63001679e-03, -3.70112108e-03, 1.34079275e-03,
       1.89559367e-02, 3.07119600e-02, 2.00924668e-02, -1.46400295e-02,
       2.21608090e-03, -1.69506595e-02, 6.94277324e-03, 7.12734833e-03,
       -3.63250189e-02, -8.64051282e-03, -2.61256308e-03,
       -3.03734001e-02, -4.59232106e-04, 1.43778725e-02, 1.03488041e-03,
       2.24985371e-04, 1.66570637e-02, -2.86467150e-02, -1.78475049e-03,
       6.93176454e-03, -3.86353722e-03, 1.16142826e-02, 2.09258609e-02,
       1.39700687e-02, -3.67490831e-03, -2.09845584e-02, -5.94439590e-03,
       7.00246822e-03, 9.21427459e-03, 2.36069430e-02, 2.47499067e-02,
       2.57340949e-02, 3.29207815e-02, 1.07227294e-02, -6.37409184e-03,
       -8.22983775e-03, 1.06404722e-02, -3.93541949e-03, 1.35769704e-02,
       -1.60807874e-02, 1.72648244e-02, 1.65058803e-02, -1.83146559e-02,
       -9.06324480e-03, -4.05168533e-02, -2.97944900e-02,
       -2.19795015e-02, -2.85763275e-02, 3.45061417e-03, 5.02084289e-03,
       5.81537420e-03, -1.69653986e-02, -1.14544546e-02, -2.32351255e-02,
       -3.41008534e-03, -1.55151617e-02, -8.23510252e-03, 3.70060257e-03,
       1.17180636e-02, 1.02105387e-03, 1.39614698e-02, -1.30528267e-02,
       3.69431288e-03, 1.62957273e-02, -3.56860895e-04, 4.25255508e-04,
       7.89725315e-03, 2.62895203e-03, 2.00622026e-02, 4.10966016e-03,
       -9.33708809e-03, -3.46676446e-04, 3.39453407e-02, 2.85565741e-02,
       1.76416989e-02, 4.94128559e-03, 1.28952656e-02, -9.30720184e-04,
       -4.56563616e-03, -1.19984557e-03, -1.73370317e-02,
       -1.49040672e-04, -2.74521727e-02, -1.90147236e-02, 9.73846391e-03,
       -9.24816937e-04, -1.19220521e-02, -2.49405038e-02,
       -2.47052182e-02, -3.45481336e-02, 1.75354593e-02, -4.35951166e-03,
       3.62583832e-03, -6.56044530e-03, -1.97875725e-05, 9.79770068e-03,
       1.32364628e-03, -1.06918430e-02, -1.38773769e-03, 2.49531381e-02,
       2.02669762e-02, 4.99566877e-03, -1.22415116e-02, 6.33477606e-03,
       2.72298548e-02, 2.11215988e-02, -1.97838414e-02, 4.07204498e-03,
       1.76498815e-02, 6.09202310e-03, -1.79365203e-02, 4.23772930e-04,
       -1.33813443e-02, -2.44729221e-02, -3.35025862e-02, 5.95113542e-03,
       -2.07167659e-02, 8.45240150e-03, 9.62793455e-03, 7.37513090e-03,
       5.90835058e-04, -2.62479368e-03, -9.93798766e-03, -1.28466859e-02,
       3.52662220e-03, -2.69416487e-03, 9.12162568e-03, 1.24258047e-03,
       -4.15413361e-03, -8.70460086e-03, 1.25416918e-02, 3.63629535e-02,
       5.02349762e-03, -2.24171579e-02, -1.30229699e-03, 1.83036160e-02,
       -2.79802922e-03, -1.38486074e-02, -3.52719165e-02, 7.14513380e-03,
       2.45238766e-02, 1.11174956e-02, 6.32581674e-03, 1.64347421e-03,
       -9.04315989e-03, -2.65467577e-02, -4.91323099e-02, 7.10355164e-03,
       -2.01256946e-03, 1.76410340e-02, -1.96752027e-02, -3.50355706e-03,
       7.83856958e-04, 2.64051696e-03, -2.78660795e-03, -7.92564917e-03,
       -2.04033013e-02, -2.60603633e-02, -8.12886842e-03,
       -8.56759027e-03, -9.11392365e-03, -1.17265480e-02,
       -6.31896182e-05, -2.30477415e-02, -2.68656276e-02, 2.55390406e+00 ]
