%YAML:1.0
---
myHogPlayerDector: !!opencv-object-detector-hog
   winSize: [ 64, 128 ]
   blockSize: [ 16, 16 ]
   blockStride: [ 8, 8 ]
   cellSize: [ 8, 8 ]
   nbins: 9
   derivAperture: 1
   winSigma: 4.
   histogramNormType: 0
   L2HysThreshold: 2.0000000000000001e-01
   gammaCorrection: 1
   nlevels: 64
   signedGradient: 0
   SVMDetector: [ -3.28223780e-02, -1.92721635e-02, -5.79916965e-03,
       -2.03412753e-02, -1.32118156e-02, -1.01662846e-02,
       -1.27241369e-02, -2.34168135e-02, -4.48520556e-02,
       -4.10816818e-03, 9.67175141e-03, -3.25165596e-03, -2.39872765e-02,
       -2.53603868e-02, -1.01744672e-02, 1.32019566e-02, -1.75170589e-03,
       -1.04585467e-02, -7.13999989e-03, 1.89784225e-02, 1.60212312e-02,
       1.12104770e-02, -1.13840811e-02, -1.83790531e-02, -5.42837381e-03,
       -7.75489630e-03, -1.56878307e-02, 1.62144285e-02, 2.39689834e-02,
       -5.42817917e-03, 2.08090544e-02, 2.87566148e-03, -2.76432489e-03,
       3.07754073e-02, 3.59267108e-02, 5.17971115e-03, -3.86225544e-02,
       -6.56632334e-03, -9.26351827e-03, -2.74540167e-02, 2.63310969e-03,
       -1.75030641e-02, 4.59242566e-03, -6.60493411e-03, -4.45308648e-02,
       -1.20294690e-02, 1.58379637e-02, 7.77936820e-03, 7.23440805e-03,
       1.42779453e-02, -6.65945327e-03, -1.45331095e-03, -6.07559690e-03,
       -2.70407367e-02, -9.42241866e-03, 3.69674130e-03, -4.29399172e-03,
       1.67902689e-02, 1.71636173e-03, -2.26196852e-02, 1.79593302e-02,
       1.50638344e-02, -2.02138219e-02, 1.13970311e-02, 1.60884317e-02,
       2.15731822e-02, 1.82010885e-02, 3.68528045e-03, 9.18663386e-03,
       2.75676437e-02, 2.77563967e-02, -5.04743890e-04, -8.56922474e-03,
       6.64360262e-03, -1.16269039e-02, -8.41966458e-03, -3.84092890e-02,
       -2.15080623e-02, -2.04941723e-02, -2.88543813e-02,
       -4.99167927e-02, 1.19930673e-02, 3.83952223e-02, 9.49347671e-03,
       1.74977407e-02, -2.10075136e-02, -8.50908831e-03, -1.40934624e-02,
       -2.23827064e-02, -3.18908319e-02, -2.36634150e-05, 8.86177085e-03,
       -2.32692342e-02, 4.95480094e-03, -1.55628994e-02, -1.69239566e-02,
       -8.58163834e-03, -1.53151492e-03, -3.40647362e-02,
       -4.75996081e-03, 1.93894301e-02, 3.03993607e-03, 3.77932824e-02,
       -3.52365477e-03, 1.02863498e-02, 1.47766741e-02, 1.00345816e-02,
       -1.87124293e-02, -9.84873250e-03, 1.58753376e-02, -6.53805444e-04,
       -7.26290327e-03, -1.52770821e-02, -1.20951980e-02,
       -2.81521343e-02, -2.12407578e-02, -4.09960747e-02,
       -2.43802229e-03, 2.20784433e-02, 1.01123657e-02, -1.44577911e-02,
       -2.94947233e-02, -1.94567796e-02, -3.23337987e-02,
       -1.70155261e-02, -2.60049216e-02, -1.48833850e-02, 2.11228058e-02,
       2.71834806e-02, 8.59294087e-03, -1.96398459e-02, 1.16622131e-02,
       -1.68787153e-03, -3.25406739e-03, -1.96088552e-02,
       -6.30344125e-03, 1.03423400e-02, 2.94501130e-02, -5.74806379e-03,
       -9.36572161e-03, 4.33067651e-03, 4.93306760e-03, 1.40845152e-02,
       8.65457114e-04, -7.34963128e-03, 2.40464117e-02, -2.02771160e-04,
       -4.16257279e-03, -1.70837604e-02, -1.88689884e-02,
       -1.16980281e-02, -5.35371713e-03, -2.10397951e-02, 4.38743504e-03,
       2.14584731e-02, -1.03495885e-02, -2.76074070e-03, -1.40753742e-02,
       -9.89130978e-03, -1.04278000e-02, -1.83385238e-02,
       -2.87184734e-02, 1.05133536e-03, 2.84406822e-02, -4.23463807e-03,
       -3.62614635e-03, -2.17289850e-02, -6.85789855e-04, 3.86021566e-03,
       1.94968302e-02, 1.76411159e-02, 1.59295965e-02, 3.83609235e-02,
       -3.05497926e-03, 7.77445454e-03, -1.40828677e-02, -2.65324395e-02,
       -8.50150362e-03, 1.19047593e-02, 1.35600818e-02, -4.02200315e-03,
       8.82124901e-03, -2.07881872e-02, -1.58571713e-02, 2.18868721e-03,
       1.13129895e-02, -1.97039209e-02, -1.63112152e-02, -2.26411577e-02,
       -1.56474430e-02, 1.29392361e-02, -1.53909018e-02, -1.00568645e-02,
       -1.35077136e-02, -1.78289134e-02, -4.44945171e-02,
       -2.00895146e-02, -2.27423571e-02, 2.02683285e-02, 2.99953427e-02,
       9.01397597e-03, 2.17320528e-02, 2.17442121e-02, -1.69561747e-02,
       -5.31883305e-03, 1.22964215e-02, -1.70811452e-03, -3.38450843e-03,
       2.85963994e-02, 2.08531395e-02, 1.61959212e-02, -3.55439484e-02,
       -1.36237778e-02, -1.29963197e-02, 8.24143831e-03, -1.66422278e-02,
       1.17497724e-02, 3.24533321e-02, -3.40817310e-03, -1.41638087e-03,
       -2.50106622e-02, -1.42498007e-02, -2.15750504e-02, 2.72502331e-03,
       -1.16875758e-02, 4.10829671e-03, 1.59845799e-02, -1.32511752e-02,
       -5.93073014e-03, -3.96290421e-02, -3.16461697e-02,
       -1.90749466e-02, -1.57567989e-02, -2.87527386e-02,
       -7.03928713e-03, 3.59244831e-02, 2.32767314e-02, 2.11923327e-02,
       -2.87314244e-02, -7.27005489e-03, -3.00854351e-03, 1.94806475e-02,
       -1.53171597e-02, -4.81109880e-03, 3.43832634e-02, 1.41970413e-02,
       1.72583666e-02, -2.45110914e-02, -5.74365305e-03, 3.20009515e-03,
       2.06268728e-02, -2.22861208e-02, 1.78511575e-04, 2.15308880e-03,
       -1.25803808e-02, -1.47912009e-02, -3.31436954e-02,
       -5.86970290e-03, -9.01596248e-03, -6.14798907e-03,
       -2.82029286e-02, -4.23487695e-03, -6.92025386e-03,
       -2.48171613e-02, -1.90574881e-02, 4.62119700e-03, 5.08277118e-03,
       -5.52966213e-03, -1.07421316e-02, -2.33923681e-02, 1.41908629e-02,
       3.63949612e-02, 1.04035577e-02, 9.85009503e-03, -7.70260207e-03,
       9.62506980e-04, 1.26159759e-02, 2.01456100e-02, -6.08315971e-03,
       2.08850540e-02, 3.23787853e-02, 4.48857713e-03, -1.27104707e-02,
       -1.99612379e-02, -6.83624239e-04, 1.64405778e-02, 1.11965211e-02,
       1.31156351e-02, -8.79875384e-03, -3.94568453e-03, -2.75307577e-02,
       -2.05026865e-02, -1.28295599e-02, 1.97245812e-04, -1.14491978e-03,
       -1.47662256e-02, -2.00619157e-02, -4.21797298e-03, 2.07085349e-02,
       -8.18365999e-03, -1.65556222e-02, -2.43444201e-02,
       -3.45584191e-02, -1.00396490e-02, 1.05467169e-02, -2.06450392e-02,
       1.40958540e-02, 4.26223353e-02, 6.52380008e-03, 2.39945203e-03,
       -1.13447318e-02, 5.67302480e-03, 1.86755396e-02, 5.84750436e-03,
       -4.54181246e-03, -1.80751383e-02, 1.74809191e-02, 1.65521391e-02,
       2.36706194e-02, -2.49443650e-02, -1.51646396e-04, 1.23803560e-02,
       3.49421874e-02, -3.10887601e-02, 7.53383664e-03, 1.75148342e-02,
       -1.79398283e-02, -2.92013977e-02, -3.26241329e-02,
       -3.79295833e-02, -1.70808122e-03, 2.46460680e-02, -3.30781331e-03,
       -3.19428917e-04, 1.10919941e-02, -4.49886136e-02, -2.96132322e-02,
       -1.75357945e-02, -1.49254343e-02, -6.17146818e-03, 2.86832899e-02,
       -1.13250059e-03, -3.51225585e-03, 2.62994766e-02, 1.08375764e-02,
       1.34483017e-02, -3.80154513e-02, -3.23971361e-03, 1.33381365e-02,
       2.80848686e-02, -1.06653199e-02, -2.28473265e-02, -1.58250541e-03,
       -3.31784971e-02, 8.43997486e-03, -8.79542250e-03, -7.02734338e-03,
       4.28787712e-03, 1.36589119e-02, -3.09413522e-02, -1.67976525e-02,
       -5.25216293e-03, -4.20152657e-02, -4.85216938e-02,
       -9.36721358e-03, -1.19853311e-03, 4.30100318e-03, 3.63462679e-02,
       -7.75489549e-04, -1.81944240e-02, 1.76593196e-02, 5.58732124e-03,
       -1.91335306e-02, -1.98130589e-02, -3.32448371e-02,
       -2.00482793e-02, -7.29895942e-03, -3.88743952e-02,
       -2.11012438e-02, -2.67843856e-03, -1.26532027e-02, 4.58929269e-03,
       -1.55845666e-02, 4.55894694e-03, 2.11677961e-02, 1.79406498e-02,
       -2.56469585e-02, -1.41822053e-02, 1.35325119e-02, 1.53911952e-02,
       1.93458758e-02, -9.55383759e-03, -2.71722004e-02, 2.82405433e-03,
       2.85082823e-03, -3.09995301e-02, 1.01711014e-02, 2.15960126e-02,
       4.43900423e-03, -2.01738700e-02, -2.12680604e-02, -3.50017548e-02,
       -1.12777743e-02, -1.17748091e-02, -6.97037717e-03,
       -2.24341713e-02, -5.29875699e-03, -1.30342059e-02,
       -1.21666025e-02, -2.10181586e-02, -1.43744634e-03, 3.23489890e-03,
       5.30525157e-03, -1.43671753e-02, 1.60687622e-02, -1.77358987e-03,
       1.69829559e-02, -1.72395501e-02, -2.63696071e-02, -3.53786312e-02,
       -5.26032550e-03, 3.35872197e-03, -5.66309411e-03, -1.87527146e-02,
       -4.27311752e-03, 1.89649418e-03, -9.19137034e-04, -2.93653496e-02,
       2.06429772e-02, 1.10466070e-02, 1.59773305e-02, -4.38497262e-03,
       -2.15164628e-02, -3.98103520e-03, -2.32335422e-02,
       -1.72064733e-02, -2.37458795e-02, -2.19584256e-03, 7.27068400e-03,
       1.47864269e-02, -1.23049114e-02, 6.90268236e-04, -1.07174250e-03,
       -1.40309157e-02, -6.88004540e-03, -1.27227725e-02,
       -2.41949204e-02, -5.80976112e-03, 3.04317418e-02, 7.30730686e-03,
       -9.43805091e-03, 1.58045497e-02, -4.08459594e-03, 1.07410243e-02,
       -4.24463414e-02, 2.09317710e-02, -5.36297821e-03, 1.48271536e-02,
       -1.34787848e-02, -5.85923553e-04, 7.98144657e-03, 5.70311537e-03,
       -8.09847564e-03, -1.24249673e-02, -1.15756514e-02,
       -8.35636910e-03, 1.34607973e-02, -5.20474091e-03, -7.29489606e-03,
       3.13597033e-03, -1.79843255e-03, 4.41175653e-03, -2.32882071e-02,
       -2.17107553e-02, -6.47964247e-04, 1.62391700e-02, 1.65402715e-03,
       -4.84141568e-03, 1.77000184e-02, 8.79769400e-03, -7.51740625e-03,
       -1.80552416e-02, 3.33469547e-02, 9.11183469e-03, -3.32384277e-03,
       -2.40057129e-02, -1.52103426e-02, -1.00387074e-02,
       -8.27091094e-03, -8.73645581e-03, -1.01702129e-02,
       -2.45178733e-02, 1.44037819e-02, 2.36338750e-02, -1.70198437e-02,
       -1.21454597e-02, -1.50641529e-02, -1.84505172e-02,
       -9.39815957e-03, -2.17335857e-02, -1.63849458e-04, 2.47790664e-02,
       1.46753397e-02, -1.44367712e-02, -7.55885150e-03, 3.03297490e-03,
       -8.70373158e-04, -2.49346439e-02, -1.36884451e-02, 2.19790582e-02,
       2.91935605e-04, -8.45347252e-03, -1.37428427e-02, -4.25667167e-02,
       -4.04187664e-02, -1.75031293e-02, -4.74307165e-02,
       -2.19603516e-02, 2.52939295e-03, 5.36773633e-03, 6.44739438e-03,
       -1.78043600e-02, -2.27713128e-04, 9.07524582e-03, 9.83639061e-03,
       -8.86270683e-03, -3.82435247e-02, 3.38407643e-02, 1.29083665e-02,
       7.90070929e-03, -5.63116837e-03, -2.43349317e-02, 1.02702575e-02,
       1.08480202e-02, -4.98439744e-03, -2.43010428e-02, 4.48804908e-02,
       2.57894695e-02, 1.57362837e-02, -2.65239477e-02, -3.06676198e-02,
       -5.38160792e-03, 1.57548264e-02, 2.84231137e-02, -3.92205045e-02,
       -2.55597979e-02, -1.86896864e-02, -2.85693854e-02,
       -5.81559315e-02, -2.41679158e-02, 3.47710866e-03, 2.30590068e-03,
       3.18728499e-02, -3.08648609e-02, -1.43709835e-02, 3.16521880e-04,
       -1.18097775e-02, -4.02409136e-02, -3.59720492e-04, 1.06138578e-02,
       3.25692892e-02, 4.19673026e-02, -4.16987203e-02, -1.29783498e-02,
       -1.71555821e-02, -1.60262212e-02, -2.17705071e-02, 1.75863858e-02,
       2.10710242e-02, 3.87537591e-02, 4.60635759e-02, -2.20151450e-02,
       5.73981227e-03, 3.52897588e-03, 4.76430263e-03, -8.34753178e-03,
       -3.19968089e-02, -1.46676600e-02, -1.25776771e-02, 1.35298362e-02,
       -4.01478596e-02, -2.19301376e-02, 3.59702297e-03, -8.46268050e-03,
       -3.07171792e-02, -2.88837235e-02, -6.63194386e-03,
       -8.13292805e-03, 1.67691633e-02, -4.88584228e-02, 5.75045310e-03,
       1.01471844e-03, -6.07403321e-03, -3.62619385e-02, -6.45482959e-03,
       1.02404952e-02, 8.22237600e-03, 5.61485486e-03, -2.03461107e-03,
       1.06268954e-02, 1.81894971e-03, 4.75674681e-03, -7.13996449e-03,
       -1.64153297e-02, 1.10511174e-02, -2.45653465e-02, 9.59235150e-03,
       4.04562382e-03, 3.04460507e-02, 6.32807566e-03, 2.23247018e-02,
       5.22238156e-03, -2.64566336e-02, -6.55860233e-04, -3.10599301e-02,
       -8.75110086e-03, -1.47068081e-02, 6.87550346e-04, -1.19924974e-02,
       -8.06122739e-03, -4.13348302e-02, -9.82861500e-03, 1.19758332e-02,
       1.09730205e-02, 2.05615870e-04, -2.59603690e-02, -2.39256187e-04,
       -8.56397022e-03, -8.28925869e-04, -1.84820592e-02,
       -1.96247865e-02, 1.32035706e-02, -1.73664633e-02, -2.17790939e-02,
       -3.23818363e-02, 1.57621466e-02, -2.33781897e-02, 6.96693547e-03,
       -1.60048269e-02, 1.73562183e-03, 3.38842273e-02, -4.17123688e-03,
       -1.28856432e-02, -5.66227809e-02, -1.78300720e-02,
       -2.74457615e-02, -1.17092840e-02, -1.39731336e-02,
       -3.53823267e-02, 2.39798632e-02, 1.12227444e-02, -2.58364100e-02,
       -3.59113067e-02, -5.97553281e-03, -7.06036342e-03,
       -6.06267946e-03, -2.70797890e-02, -2.47283205e-02, 1.23512708e-02,
       2.23286208e-02, -2.54623927e-02, -2.09014975e-02, 7.24372407e-03,
       8.88899900e-03, -5.12460771e-04, -5.08554559e-03, -5.54493116e-03,
       2.05531660e-02, -3.30687943e-03, -6.66701794e-03, -3.57822999e-02,
       -4.38838359e-03, -7.09839026e-03, -8.18767026e-03,
       -1.30568454e-02, -2.33038478e-02, 1.94294974e-02, 1.08196959e-02,
       -1.24993846e-02, -4.24918765e-03, -7.09703658e-03,
       -4.12652502e-03, -3.68969794e-03, -7.04743015e-03, 1.15595479e-02,
       1.23660509e-02, -9.40958969e-03, -2.62949187e-02, -4.30439711e-02,
       -1.54918423e-02, -2.87770457e-03, 1.32267512e-02, 2.24428978e-02,
       2.70580444e-02, 1.27777634e-02, -1.29825631e-02, -2.02791505e-02,
       -2.03516949e-02, -2.81999074e-02, -8.54439568e-03, 2.69335732e-02,
       3.31785753e-02, -2.21218122e-03, 1.21850055e-02, -1.08624892e-02,
       -2.22556610e-02, -5.50110266e-02, -2.99968068e-02,
       -3.54209659e-03, 1.91506185e-02, 2.18490902e-02, 1.04179662e-02,
       1.91807596e-03, -5.29493857e-03, -7.78008718e-03, -4.74779010e-02,
       -2.34924331e-02, -1.25394184e-02, 2.45344080e-02, 1.40478313e-02,
       7.38976477e-03, 2.18239576e-02, 1.50040584e-03, -1.83505949e-03,
       -5.06812194e-03, -2.88437828e-02, -7.91985635e-03, 3.23177800e-02,
       1.17406691e-03, -2.94568553e-03, 2.29366291e-02, -1.92516483e-02,
       -1.44769447e-02, -3.41045633e-02, -1.86727364e-02,
       -1.83877870e-02, 8.92795529e-03, -2.38085110e-02, -1.02205602e-02,
       2.03417558e-02, 1.50100808e-04, 8.72585224e-04, -1.79378986e-02,
       -1.62036531e-02, -2.01426577e-02, 1.76184755e-02, -5.94793400e-03,
       5.57089131e-03, 4.38082479e-02, -1.26483748e-02, -1.38819041e-02,
       -5.85564300e-02, -2.14244872e-02, -1.11740483e-02, 1.67588983e-02,
       -1.75858010e-02, -1.67724472e-02, 1.12966010e-02, -1.30959658e-03,
       5.46018174e-03, -2.70777531e-02, -1.85345281e-02, -8.44033621e-03,
       -3.76793812e-03, -2.75877248e-02, -1.61300432e-02, 2.80052982e-02,
       -3.80895042e-04, 1.36693958e-02, -2.46144626e-02, -1.40750147e-02,
       -1.17895780e-02, -3.63003765e-03, -3.41988690e-02, 9.29216109e-03,
       2.82463860e-02, 2.71547027e-03, 3.21738026e-03, -1.91698298e-02,
       -7.51096150e-03, -2.67239101e-03, 3.59256519e-03, -7.82488193e-03,
       -5.60806924e-03, 3.49949002e-02, -5.08721964e-03, 1.81304645e-02,
       -3.71162929e-02, 9.03730653e-03, -2.10349564e-03, -2.00445554e-03,
       -2.50384212e-02, -1.19178277e-02, -1.79944723e-03,
       -2.65385378e-02, -2.74198279e-02, -1.84832215e-02,
       -9.62107070e-03, 4.87581454e-03, 8.54787603e-03, -1.40806464e-02,
       1.53524568e-02, 6.00746414e-03, -1.38136316e-02, -1.83583330e-02,
       -2.37214211e-02, -7.66157114e-04, 3.35517363e-03, 5.23965806e-03,
       1.44448341e-03, -2.18725926e-03, 1.93665698e-02, -2.51611173e-02,
       -1.86132323e-02, -1.22388173e-02, 7.28047313e-03, 6.49851514e-03,
       1.00789433e-02, -1.59009472e-02, 9.41008143e-03, -1.46875419e-02,
       -1.60298310e-02, -1.63264992e-03, -2.60922872e-02, 2.24948637e-02,
       3.81405139e-03, 8.32450669e-03, 6.32547401e-03, -3.24108987e-03,
       1.18943108e-02, -8.56158137e-03, -4.16609040e-03, -2.85713766e-02,
       -4.10112925e-03, -5.26828086e-03, -1.66294333e-02,
       -1.73640437e-02, -3.69266197e-02, -1.77604181e-03,
       -1.91232283e-03, 1.58454925e-02, -1.36402017e-02, -8.54566460e-04,
       -1.65529568e-02, -9.44840163e-03, -5.34705929e-02, 9.30402335e-03,
       1.55244907e-02, -1.06895287e-02, 1.61926840e-02, -2.12899689e-02,
       1.33201117e-02, -6.80781784e-04, -1.18794444e-03, 5.69703244e-03,
       -2.76246760e-02, 5.10453200e-03, -4.19889065e-03, 4.92994860e-03,
       -9.03260522e-03, 1.60459392e-02, 1.16598848e-02, 4.52453649e-04,
       -1.31516745e-02, -1.77215431e-02, 2.82534212e-03, -9.94934468e-04,
       4.55558440e-03, -2.43647341e-02, 2.28590891e-03, 1.57850664e-02,
       1.27547560e-02, -2.64646094e-02, -2.14397553e-02, -8.09315685e-03,
       -2.73812283e-02, 1.07954926e-04, -2.25171074e-02, -1.66797508e-02,
       -5.79988956e-03, -1.69494038e-03, -3.13136950e-02, 2.97619449e-03,
       2.79007982e-02, 9.70944483e-03, 9.48585663e-03, -1.22051835e-02,
       8.23751558e-03, 2.59430222e-02, 2.39979792e-02, -3.33521166e-03,
       -8.39925429e-04, -2.85978173e-03, -2.22747307e-02, 5.96028636e-04,
       -3.59892882e-02, -2.45131683e-02, -8.73546023e-03,
       -1.72962423e-03, -7.56290415e-03, -1.30363023e-02, 1.77376773e-02,
       -5.29656466e-03, 1.02630295e-02, -2.56740320e-02, -1.33557478e-03,
       3.04803345e-03, -2.71260124e-05, -2.95394678e-02, -1.27805425e-02,
       1.94345508e-02, 6.30879309e-03, 2.37253420e-02, -3.12186871e-02,
       -1.86991692e-02, 2.25950265e-03, 3.79471458e-03, -2.52190400e-02,
       -3.76834627e-03, 5.55432122e-03, -4.48344275e-03, 1.98920947e-02,
       -5.24823926e-03, -1.02915978e-02, -5.81389153e-03, 4.24823011e-05,
       -9.46819782e-03, -7.89027195e-03, 1.27704879e-02, 1.18947607e-02,
       2.65769064e-02, -5.54266833e-02, -1.64923761e-02, -9.42470971e-03,
       -1.17993485e-02, -5.90622285e-03, 1.60201900e-02, 2.61942646e-03,
       1.19498139e-02, -3.50071630e-03, -4.07922603e-02, -2.66988017e-02,
       -7.36878207e-03, -3.47639201e-03, -8.16650502e-03,
       -6.15177304e-03, 1.02562355e-02, -9.01883375e-03, 8.13896244e-04,
       -1.58853400e-02, 7.00958865e-03, -1.81881189e-02, -1.91567827e-03,
       -6.38082251e-03, 2.34780144e-02, 1.20730139e-02, -2.67507555e-03,
       2.38203662e-04, -3.12822312e-02, -3.38357724e-02, -1.31539442e-02,
       -6.93907379e-04, 8.29616503e-04, 1.64315640e-03, -3.64217698e-03,
       -1.14925820e-02, 1.27562396e-02, 5.93938120e-03, 3.88400140e-03,
       -7.31842965e-03, 1.94945256e-03, 4.22767858e-04, -3.72150401e-03,
       1.11224875e-02, -9.99523699e-03, 7.09413225e-03, -1.89368445e-02,
       1.39862262e-02, -2.00940035e-02, -7.19159888e-03, -1.36651937e-02,
       3.43153812e-03, 1.85572617e-02, 1.06623536e-02, -7.62947137e-03,
       -1.59192681e-02, -2.89077107e-02, -1.48729421e-02,
       -1.03267441e-02, -1.09444214e-02, -8.18523485e-03, 3.81370611e-03,
       7.54899019e-03, 1.48004489e-02, -3.66113591e-03, -2.13786378e-03,
       -2.16667969e-02, -7.54202390e-03, -1.79900450e-03, 3.74029460e-03,
       3.60776670e-03, 6.26072846e-03, -8.35376233e-03, -2.65767463e-02,
       -1.07531128e-02, -1.45116122e-02, -3.75736761e-03,
       -1.83608327e-02, 2.39093252e-03, -1.29896887e-02, -1.68863479e-02,
       -2.06222329e-02, -1.64966676e-02, -2.18271371e-02, 2.55146883e-02,
       1.22526111e-02, -4.97406395e-03, -1.54681914e-02, -2.55889166e-02,
       -2.52043195e-02, 1.09270634e-02, -1.47256497e-02, -1.45793259e-02,
       8.92866310e-03, 8.30926700e-04, -1.12067452e-02, -2.08505918e-03,
       -2.91640777e-03, 9.18048620e-03, -1.94681901e-02, 1.36140492e-02,
       5.99704823e-03, 1.67311151e-02, 9.98565834e-03, -8.14875530e-04,
       -2.45663561e-02, -1.16586760e-02, -1.27586806e-02,
       -1.95072102e-03, 1.43363951e-02, -7.72455567e-03, -4.78443602e-04,
       8.64716060e-03, -1.14851501e-02, 1.80275925e-03, 7.02498900e-03,
       1.16498237e-02, 5.66186709e-03, -3.80344428e-02, -1.00809382e-03,
       -7.15913717e-03, -5.13618393e-03, -1.17550585e-02,
       -1.10936100e-02, 1.88647509e-02, 1.61286891e-02, 8.13741516e-03,
       -1.02466997e-02, 2.56896354e-02, 1.06949154e-02, 5.76194655e-03,
       -2.34865341e-02, 9.21282265e-03, 7.44197192e-03, 1.42663543e-03,
       1.54103274e-02, -2.82292198e-02, -1.06775220e-02, -2.19056401e-02,
       5.03158756e-03, 4.13125241e-03, -2.71382146e-02, -9.29352641e-03,
       2.36728834e-03, -3.48715228e-04, -2.24698870e-03, 1.41886100e-02,
       4.37241606e-03, 6.81210915e-03, -2.31899302e-02, -1.05747934e-02,
       5.86603768e-03, 1.76992100e-02, 2.27930434e-02, -6.32528262e-03,
       -1.53379813e-02, -1.84919816e-02, -2.85741743e-02,
       -3.62688936e-02, -3.92615888e-03, 1.77585036e-02, 2.64500417e-02,
       2.26000249e-02, -2.56044138e-02, -7.78327277e-03, -2.22209468e-02,
       -1.56560577e-02, -3.75408120e-02, -1.53966555e-02, 6.60086842e-03,
       -6.35495503e-03, 4.10606200e-03, -1.94123182e-02, -7.49363424e-03,
       2.40219687e-03, -1.83547325e-02, -3.56496014e-02, 1.03223538e-02,
       3.16200107e-02, 1.09718237e-02, 1.66300964e-02, -2.03772616e-02,
       -1.05170463e-03, 1.22722343e-03, -5.04749455e-03, -2.30062902e-02,
       -2.05712989e-02, 1.47607829e-02, -5.17640775e-03, 8.68969690e-03,
       -7.46072596e-03, 1.39627345e-02, -6.40402595e-03, -6.21061260e-03,
       -3.84399295e-02, -3.78033966e-02, 1.44893974e-02, -1.06132440e-02,
       -1.75371896e-02, 2.13807020e-02, 3.33185419e-02, -6.33784896e-03,
       4.45904769e-03, -2.67526302e-02, 2.76881561e-04, 2.32708398e-02,
       -1.52082779e-02, 6.67341147e-03, -1.89656075e-02, -1.64856086e-03,
       1.40249822e-03, 4.74994211e-03, -1.23860398e-02, -1.28888553e-02,
       1.98423266e-02, -1.01108709e-02, -1.65623687e-02, 4.61756764e-03,
       1.38488850e-02, 3.68985394e-03, 1.30458567e-02, -1.32439360e-02,
       -3.76789682e-02, -1.56597905e-02, -2.41075661e-02,
       -2.01749764e-02, -2.05641333e-02, 1.65447555e-02, -1.66467205e-02,
       -3.13075795e-03, -2.95442119e-02, -1.82612091e-02, 1.22477906e-02,
       9.19950567e-03, 6.75603608e-03, -4.65878770e-02, -5.07239997e-03,
       -2.63234340e-02, -1.04180798e-02, -3.72885913e-02,
       -9.14985966e-03, -1.27952322e-02, -2.54931971e-02,
       -1.15963090e-02, -1.79308504e-02, -7.27653457e-03,
       -8.69040471e-03, 3.24650621e-03, -1.02512147e-02, 6.86814822e-03,
       1.60902813e-02, 1.47124538e-02, 1.44057777e-02, -1.61982439e-02,
       -1.22410562e-02, -1.42584192e-02, 2.12486065e-03, 1.07114175e-02,
       -2.69093253e-02, 5.19859884e-03, 4.09306405e-04, 2.07772618e-03,
       -5.65812439e-02, -2.30383053e-02, -3.34973671e-02,
       -2.47221794e-02, -4.40638326e-02, -3.53733525e-02, 1.48640433e-02,
       -1.18032172e-02, -4.22882661e-03, -6.19806815e-03,
       -1.70539711e-02, -3.64845395e-02, -1.58373546e-02,
       -3.17758173e-02, 2.08700038e-02, -3.98798985e-03, 1.19407466e-02,
       -2.37599295e-03, -2.27375999e-02, -2.41035353e-02,
       -4.63541076e-02, -5.62219927e-03, 7.36994087e-04, 6.19633729e-03,
       5.54048177e-03, 1.79505628e-03, -8.07991624e-03, -1.80843975e-02,
       -1.73631776e-02, -3.63578759e-02, -4.50764643e-03,
       -2.44428287e-03, -2.02100612e-02, 1.69915985e-02, -1.64785180e-02,
       -1.86960008e-02, -4.37432900e-02, -1.47435954e-02,
       -1.11657684e-03, 1.46240182e-02, -2.01004557e-04, -1.96483601e-02,
       -5.21778967e-03, -1.73991807e-02, -1.61441378e-02,
       -4.06575873e-02, -4.43023257e-03, 1.08152526e-04, 9.02934093e-03,
       -1.79051198e-02, -1.31126465e-02, 1.23253679e-02, -1.29845808e-03,
       -7.79599091e-03, -3.69204096e-02, -1.63494535e-02,
       -5.26661146e-03, 1.24281151e-02, -1.18591497e-02, -2.23524440e-02,
       1.46772305e-03, -9.40132514e-03, -2.10769847e-02, -3.88080478e-02,
       -2.21763887e-02, -1.17520802e-02, -2.20925780e-03,
       -1.16813676e-02, -1.36956945e-02, 1.53229022e-02, -1.13323936e-03,
       -6.13856642e-03, -1.53399138e-02, 1.04288170e-02, -3.99931392e-04,
       9.03940666e-03, -2.58254036e-02, -7.59141147e-03, 3.02071590e-02,
       3.61086614e-03, -2.23928504e-03, -1.53472433e-02, -1.12871528e-02,
       -1.61891148e-05, 7.18677277e-03, -3.74171659e-02, 4.24107676e-03,
       2.25944184e-02, -5.02272602e-03, -1.97458174e-02, 5.37673756e-03,
       9.43015702e-03, -7.82585610e-03, -5.28654410e-03, -9.37180873e-03,
       -1.30662508e-02, 2.39808112e-02, -2.13074107e-02, -7.30371661e-03,
       -2.02163458e-02, 3.74937453e-03, 3.75680602e-03, -6.80785021e-03,
       -4.08678725e-02, -1.39715998e-02, 3.61312111e-03, 3.79108451e-03,
       6.43570395e-03, -1.54270669e-02, 1.50581717e-03, 1.84401907e-02,
       1.19965514e-02, -2.45089699e-02, -1.44787980e-02, 8.65296740e-03,
       -2.95982510e-02, 8.94507021e-03, -3.52091901e-02, 1.97566524e-02,
       1.22518337e-03, -1.10880146e-02, -2.39240304e-02, -1.76691152e-02,
       4.34248010e-03, 6.20034570e-03, 4.12729708e-03, -2.41217185e-02,
       -2.41142348e-03, 6.62403833e-03, -1.33883143e-02, -3.43701392e-02,
       -2.55681202e-02, -8.41394626e-03, -2.23244373e-02,
       -6.01047766e-04, -3.90837342e-02, 1.25291599e-02, 5.91194350e-03,
       -1.79184470e-02, -3.12955678e-02, -1.51729323e-02,
       -1.42451515e-03, -3.24997231e-02, -2.01465748e-02,
       -1.90373790e-02, -6.39686268e-03, -1.66345369e-02,
       -2.33162735e-02, -2.96054333e-02, 7.04732304e-03, -5.65223349e-03,
       -5.58006670e-03, 3.38481143e-02, -1.47982361e-02, -6.33801613e-03,
       -1.93013381e-02, -1.07169691e-02, -7.60372588e-03,
       -2.29982100e-02, -2.48372857e-03, -1.89303309e-02,
       -2.32227631e-02, -3.65757197e-02, -1.98719129e-02,
       -1.08605837e-02, -1.44171109e-02, -1.91352647e-02,
       -1.49348145e-03, 5.13564004e-03, 2.10493919e-04, 6.86755264e-03,
       -2.07622722e-02, -1.72676854e-02, -5.03553590e-03, 9.73131973e-03,
       -9.54781752e-03, 5.63921733e-03, -2.69728154e-03, -5.99901378e-03,
       1.61917899e-02, -2.11686008e-02, -2.11774018e-02, -2.29765959e-02,
       -2.01742407e-02, -1.90479569e-02, -2.60639749e-02, 1.32760452e-02,
       -1.00332731e-02, -1.24494070e-02, -1.57102607e-02, 2.52650538e-03,
       -6.40410883e-03, -1.87026225e-02, -3.25441137e-02,
       -1.57962448e-03, 7.80503964e-03, 1.61732454e-03, 1.93468132e-03,
       -2.65458673e-02, -3.10337525e-02, -1.33213708e-02, 2.41858489e-03,
       -1.83926560e-02, -3.85825187e-02, -8.17675889e-03,
       -1.66055392e-02, -1.48994755e-02, -2.35008672e-02, 1.53978402e-03,
       -7.51033751e-03, -6.85599959e-03, -3.20882797e-02,
       -8.82896129e-04, 3.48842777e-02, 2.28798091e-02, 7.16364570e-03,
       -8.98690149e-03, 6.48372900e-03, 1.41354045e-03, -2.76635797e-03,
       -1.12790605e-02, -9.90669895e-03, -5.72956586e-03,
       -9.65540856e-03, 1.04335416e-02, -1.85485538e-02, -3.38956676e-02,
       -1.99379623e-02, -1.39282243e-02, -1.08648622e-02,
       -1.53457811e-02, 2.28318367e-02, 1.45228356e-02, 1.02034900e-02,
       5.77595551e-03, 2.89049856e-02, 9.26117320e-03, 2.48604757e-03,
       -6.22031977e-03, -3.40616331e-02, -4.63230116e-03,
       -1.95629317e-02, -2.10330298e-04, -1.72322653e-02,
       -1.85519028e-02, -1.58150923e-02, -1.17916921e-02,
       -3.59326527e-02, -6.04748400e-03, -1.25419404e-02,
       -1.33716306e-02, 2.01121755e-02, -4.86552017e-03, -9.02060792e-03,
       -7.37327058e-03, -8.80900118e-03, 1.61128608e-03, 1.61887724e-02,
       1.87716098e-03, 4.80822520e-03, 2.13174615e-02, -3.31673212e-02,
       -1.49150696e-02, -8.29480868e-03, -1.29690813e-02, 2.90362560e-03,
       -1.25123542e-02, -1.07020913e-02, 4.03858861e-03, 1.60750784e-02,
       -1.60313416e-02, 6.38997462e-03, -1.19025651e-02, -5.54271555e-03,
       -2.73270556e-03, 1.24075683e-02, -3.61151132e-03, -9.98228416e-03,
       -3.72364325e-03, 2.55682127e-04, 1.45412665e-02, -4.01957845e-03,
       7.13718531e-04, 1.62655604e-03, 2.64891945e-02, 1.69496499e-02,
       6.14554295e-03, 1.07971448e-02, -5.68260811e-02, -2.74085775e-02,
       -3.65259522e-03, -1.44049795e-02, 5.75900264e-03, 7.87088368e-03,
       1.00202169e-02, 1.80041995e-02, 2.40371395e-02, -2.84338761e-02,
       2.89734453e-03, 8.06961954e-03, -7.69327069e-03, -2.76223104e-03,
       8.59142002e-03, 1.46791451e-02, -1.53462472e-03, -1.36534814e-02,
       -2.10624635e-02, 6.45976141e-03, -7.88014010e-03, -9.99068189e-03,
       5.09070873e-04, -7.27267144e-03, 8.91727395e-03, 1.61050388e-03,
       -9.27598390e-04, -3.18063423e-02, 9.19471774e-03, 1.87976267e-02,
       -8.73838458e-03, -3.58816586e-03, 1.08185421e-04, 9.84718790e-04,
       1.12571502e-02, 4.49565286e-03, -1.48339719e-02, 1.09187970e-02,
       8.25716369e-03, 7.97250494e-03, 5.99803636e-03, -6.91018673e-03,
       3.75463185e-03, 1.95156522e-02, -8.77132043e-05, -1.54803582e-02,
       1.09869242e-02, 1.21946894e-02, 1.03159938e-02, -6.65712450e-03,
       -2.42620730e-03, 9.65337036e-04, 7.27127260e-03, -1.52803920e-02,
       -2.39723250e-02, 8.24557710e-03, 2.11019013e-02, -2.30066711e-03,
       -1.06033301e-02, 2.20593694e-03, 3.03220144e-03, 7.07265688e-03,
       -2.47736345e-03, -2.13720612e-02, 1.81347616e-02, 1.43060042e-02,
       1.49697578e-02, -8.52181343e-04, -1.19716609e-02, -8.77373572e-03,
       1.08541297e-02, -9.42114647e-03, -2.37886924e-02, 7.08589237e-03,
       8.56380723e-03, 1.08967051e-02, -3.79452598e-03, -1.12743275e-02,
       -6.48524519e-03, -8.73083435e-03, 1.70956925e-02, 1.08369561e-02,
       -4.19753743e-03, 5.49811637e-03, -6.63635740e-03, -1.63138211e-02,
       6.32413710e-03, -2.10725609e-03, 9.94243659e-03, 9.52794868e-03,
       -1.81920640e-02, -2.01971177e-03, 6.91370759e-03, 3.03718820e-02,
       4.34035528e-03, 1.83328183e-03, 1.62403155e-02, -2.82102090e-04,
       4.90875915e-02, -9.05153714e-03, -8.92162975e-03, 9.38785542e-03,
       4.92987130e-03, -1.71869807e-02, 9.85971885e-04, 1.50417304e-03,
       -9.84372012e-03, 9.04703140e-03, -8.76823533e-03, -2.69127800e-03,
       -2.51604477e-03, 1.75924026e-04, -1.19019970e-02, -2.29652803e-02,
       -9.50128306e-03, -2.81550107e-03, 5.49692521e-03, -8.07157811e-03,
       -5.62281488e-03, -6.42783241e-03, -1.31010069e-02,
       -3.56906131e-02, 1.20880175e-02, 2.14248858e-02, 1.05713250e-03,
       2.79904660e-02, -2.19234396e-02, -1.58364512e-02, 3.19780735e-03,
       1.56125301e-04, -7.50274723e-03, 3.84331704e-03, 1.88964594e-03,
       -2.01864727e-02, -1.54551575e-02, -3.29495408e-02, 9.70794819e-03,
       -1.40714517e-03, -6.99266279e-03, -1.49877826e-02,
       -1.21796886e-02, 1.05417175e-02, 7.45568331e-03, 7.29816454e-03,
       -2.58281790e-02, 2.95058708e-03, -4.46646893e-03, -2.95494101e-03,
       -3.75297107e-02, 5.19533549e-03, 4.25094701e-02, 1.81852207e-02,
       2.59114150e-02, -2.32716277e-02, 8.20650347e-03, 7.24513736e-03,
       1.12002399e-02, -1.91103723e-02, -1.37343062e-02, -1.40031171e-03,
       -1.22558968e-02, 4.64736531e-03, -3.86179462e-02, 7.14038173e-03,
       -5.38229756e-03, -8.39305762e-03, -2.73229945e-02, 1.08021395e-02,
       2.21153311e-02, 1.38191363e-05, -1.49014778e-03, -6.10526092e-02,
       1.20917037e-02, 1.31711625e-02, 1.22440858e-02, -5.89605048e-03,
       -8.81054252e-03, 1.51810050e-02, -3.68970144e-03, 1.01143131e-02,
       -1.71497799e-02, -2.08362890e-03, -2.40536174e-03, 1.30162248e-02,
       -1.20558767e-02, -4.33163019e-03, 2.36426760e-02, 3.56395706e-03,
       1.19761629e-02, 2.30175462e-02, 2.22973758e-03, 8.57634377e-03,
       1.12488708e-02, -1.48807531e-02, -1.16608143e-02, 2.48636175e-02,
       4.67848172e-03, 7.22275907e-03, -2.97388788e-02, 2.58715154e-04,
       5.55713661e-03, -4.03100625e-03, -1.77100468e-02, -1.46833677e-02,
       1.93926096e-02, 1.87176298e-02, 2.83771250e-02, 1.04289921e-03,
       -8.41344800e-03, -1.77840535e-02, 9.80508747e-04, -1.55564472e-02,
       -1.52733549e-02, -1.64319668e-02, -3.16493623e-02,
       -2.01105904e-02, -1.57046951e-02, -6.55540871e-03,
       -1.27630690e-02, -9.26905591e-03, -4.21852060e-02, 1.10658361e-02,
       1.29512988e-03, 1.83993261e-02, 1.05396993e-02, -1.81035418e-02,
       -6.94842916e-03, -1.42061515e-02, -1.96115277e-03,
       -1.13705536e-02, -2.31534448e-02, -8.12747236e-03,
       -1.19427098e-02, 8.09969287e-03, -2.18373705e-02, -1.70625132e-02,
       -2.38166843e-02, -7.99498335e-03, -3.40457223e-02, 4.01997846e-03,
       1.43349264e-02, 3.56388302e-03, -3.22340685e-03, -7.55527569e-03,
       6.99938275e-03, 5.70928026e-03, 1.04451859e-02, -1.45870354e-02,
       1.99722685e-02, -1.28591107e-02, 7.40461284e-03, 9.61569822e-05,
       -3.37107964e-02, -2.46456433e-02, -2.44123358e-02,
       -5.99407544e-03, -9.72885580e-04, -7.07790535e-03, 3.26175708e-03,
       -6.14600629e-03, -9.58032254e-03, -4.30902988e-02,
       -2.03280356e-02, -1.96263213e-02, -1.13864767e-03,
       -2.82814563e-03, 7.35156890e-03, 1.66971721e-02, 1.26546407e-02,
       -9.56884003e-04, -3.06156930e-02, -2.86037829e-02,
       -3.70290317e-02, -1.93391498e-02, -2.45860033e-02,
       -4.77225194e-03, 5.83506096e-03, -1.27636725e-02, -1.87006518e-02,
       -3.48655172e-02, -2.71874145e-02, -3.83032225e-02,
       -1.39367953e-02, -1.80366840e-02, -2.67489571e-02, 1.29885357e-02,
       4.42994712e-03, 2.27027852e-03, -4.66178991e-02, -1.51523324e-02,
       -2.40992662e-03, 1.30106090e-02, -3.02075990e-03, -4.23459709e-02,
       -1.32324556e-02, -6.78496016e-03, -6.50170026e-04,
       -4.03544493e-02, -2.60459054e-02, -1.51593052e-02,
       -3.18230852e-03, -7.43464148e-03, -1.89169659e-03, 6.17893180e-03,
       2.24675192e-03, -1.96942817e-02, -3.52792814e-02, -6.63961610e-03,
       2.91275675e-03, 1.92233641e-02, 1.59384701e-02, -2.38333084e-02,
       -9.93370079e-03, -1.16371119e-03, 1.64237488e-02, -3.11684422e-02,
       -2.83692721e-02, -1.29582537e-02, 1.62039269e-02, -6.37274841e-03,
       6.97038649e-03, 1.16674537e-02, -1.98127306e-03, 4.88258805e-03,
       -1.03761973e-02, -1.56238219e-02, -5.54231834e-03,
       -1.64640218e-03, -2.65921629e-03, 9.28976369e-05, 2.17982847e-02,
       -2.46460121e-02, -3.32379388e-03, -1.23036383e-02,
       -1.25221983e-02, -1.01775406e-02, -1.78859495e-02,
       -3.05433180e-02, 1.22389002e-02, 1.50702093e-02, 9.29061603e-03,
       2.52455752e-02, -4.43493994e-03, -3.44850197e-02, -6.21374976e-03,
       1.57044940e-02, 1.72599349e-02, 1.99553790e-03, -7.97276199e-03,
       -2.27256119e-02, -1.76489702e-03, -2.38290112e-02,
       -1.90651882e-02, -2.79606227e-03, 1.32406866e-02, -1.16794240e-02,
       1.06457213e-03, 9.41590779e-03, 1.24616304e-03, 1.45038972e-02,
       -1.00423945e-02, -2.02408223e-03, -4.05866373e-03,
       -5.24787046e-03, -1.97514519e-02, -1.91925243e-02,
       -6.18920429e-03, -1.58495493e-02, 2.01606546e-02, 4.78359405e-03,
       -2.66263518e-03, -7.54867820e-03, -5.15488489e-03,
       -1.47160422e-02, -1.44106615e-03, -1.21272234e-02,
       -1.20024960e-02, 4.27285209e-03, -1.11338205e-03, 8.05000588e-03,
       -4.93931770e-03, 9.44138784e-03, -2.98832357e-03, 4.50247433e-03,
       -2.41605565e-02, -2.51078494e-02, 7.51549797e-03, -7.18509778e-03,
       5.07429242e-03, -6.92877546e-03, 6.90322369e-03, -2.47098226e-03,
       -1.46211861e-02, 3.91350314e-03, -6.37996895e-03, -1.14584835e-02,
       -3.02877109e-02, -1.26928426e-02, 6.67957449e-03, 2.06865207e-03,
       -1.86149906e-02, -1.21915033e-02, 2.92886496e-02, 2.06109416e-02,
       6.33372576e-04, -2.65798476e-02, 4.24353499e-03, 1.07475845e-02,
       1.69192459e-02, -1.12716854e-02, -2.18002647e-02, -1.99585706e-02,
       -1.25236092e-02, -8.89638904e-03, -2.94630062e-02,
       -4.89745231e-04, 4.31033364e-03, -4.79450775e-03, -8.89067445e-03,
       -1.10161705e-02, 2.59775985e-02, 8.01620632e-03, 2.12583486e-02,
       -5.63029898e-03, 1.26590356e-02, 2.82968488e-03, -3.54503543e-04,
       -1.35376761e-02, -1.80606861e-02, 1.55199626e-02, 1.15874344e-02,
       -7.75812520e-03, -2.04263907e-02, -9.96011961e-03, 6.15986623e-03,
       1.05333030e-02, -1.30215529e-02, -1.97777599e-02, -7.28771416e-03,
       -1.15772281e-02, -1.11955460e-02, -8.59083422e-03, 1.15713961e-02,
       5.17953420e-03, 5.55969449e-03, -1.18478891e-02, -2.25123018e-02,
       5.62324515e-03, 5.81812346e-03, -1.30843911e-02, -1.25222970e-02,
       -1.05369398e-02, 2.38387496e-03, -2.49516591e-03, -2.70974450e-02,
       -3.06126215e-02, -8.37415177e-03, -1.13738058e-02,
       -8.03164020e-03, -3.76672707e-02, 4.13078070e-03, -1.66397784e-02,
       -1.33726536e-03, -3.16428021e-02, 2.12984346e-03, 1.92264318e-02,
       1.66707300e-03, 2.77900696e-02, -4.73883981e-03, 3.53970975e-02,
       2.29139067e-02, 6.93041598e-03, -6.98065804e-03, -2.82651652e-02,
       -5.02533186e-03, -2.67801937e-02, 7.35485600e-03, -4.21820767e-03,
       -1.19805466e-02, -9.87142418e-03, -7.24526355e-03,
       -3.39799412e-02, -5.92288747e-03, 7.67096272e-03, -1.04527129e-02,
       3.75021361e-02, -4.49819900e-02, 1.81221738e-02, -9.93445981e-04,
       -4.29642806e-03, -2.25678869e-02, -3.58828306e-02,
       -2.10649054e-02, -2.58456208e-02, 1.13450894e-02, -1.33678289e-02,
       -1.15554212e-02, -2.96947062e-02, -5.37791708e-03,
       -3.08207460e-02, -1.46770496e-02, -6.14247890e-03,
       -1.57803781e-02, -1.70802011e-03, -5.13406321e-02,
       -1.33457948e-02, -1.99267454e-02, 9.99684073e-03, 2.97488552e-03,
       -6.10927213e-03, -3.23114800e-03, -2.07407512e-02,
       -1.40122725e-02, -1.01188906e-02, 6.21718494e-03, -1.73784997e-02,
       1.32259112e-02, -3.72499647e-03, -1.40044214e-02, -3.91576625e-03,
       -1.65296737e-02, 1.09892348e-02, -8.49366654e-03, -8.71835370e-03,
       -2.80297473e-02, 1.91611536e-02, -3.82303889e-03, -8.56349431e-03,
       -1.56954082e-03, -9.12300404e-03, 3.40806064e-03, -4.19688830e-03,
       -5.72943268e-03, -1.59271471e-02, 5.88177051e-03, -1.11582698e-02,
       -2.13893433e-03, 1.94099471e-02, -1.44478679e-03, -1.69799719e-02,
       -7.71142077e-03, 1.30366813e-02, -2.49958294e-03, -7.69890758e-05,
       -2.37853872e-03, -1.53217353e-02, 7.85803888e-03, 1.00985430e-02,
       -2.22283835e-03, -3.65343615e-02, 4.32819407e-03, 4.82249830e-04,
       -1.54900281e-02, -1.05250916e-02, 1.91718142e-03, 1.97904874e-02,
       1.46039547e-02, 1.21087665e-02, -7.68391788e-03, 9.87770408e-03,
       5.44422632e-03, 1.45476842e-02, -5.96602680e-03, -1.12019349e-02,
       2.64955289e-03, 8.04247800e-03, 1.25887068e-02, -2.59369463e-02,
       -1.02482166e-03, 5.68030868e-03, 6.99455105e-03, -4.19794023e-03,
       -6.69727987e-03, -7.80280028e-03, 1.90704037e-03, -1.66000277e-02,
       -1.61019061e-02, -6.41470123e-03, 1.08319912e-02, 3.09518306e-03,
       -5.15151815e-03, 1.95208436e-03, 2.91825668e-03, 8.94975476e-03,
       9.56716109e-03, 1.29578095e-02, 3.18441540e-03, 3.94746894e-03,
       1.43482499e-02, 1.60740328e-03, -5.03783906e-03, -7.77670555e-03,
       -2.96859653e-04, -1.57263819e-02, -1.90809518e-02,
       -1.76949855e-02, -4.60240204e-04, 2.68894695e-02, 2.12223036e-03,
       -5.65527380e-03, 1.73338095e-03, -1.15043400e-02, -1.00216474e-02,
       -1.05967997e-02, -1.11349178e-02, 8.78414419e-03, 1.33187994e-02,
       -1.53962616e-02, 4.82977252e-04, -4.05608024e-03, -5.68257971e-03,
       1.64622702e-02, -7.80810276e-03, -1.62317976e-02, -7.40062026e-03,
       4.09796555e-03, -7.45487213e-03, -1.14399493e-02, 1.12933172e-02,
       5.02272509e-03, 4.51653637e-02, -1.61923170e-02, -2.07664655e-03,
       2.96303304e-03, -3.88568413e-04, -1.55969793e-02, -6.92543434e-03,
       6.51832810e-03, -9.82635003e-03, -6.16407546e-04, -3.16910408e-02,
       -2.04149503e-02, -1.14120087e-02, -1.03340056e-02,
       -4.82614385e-03, 8.07063843e-05, 3.76376091e-03, 3.26639740e-03,
       1.76821146e-02, -2.06567161e-03, 2.03647967e-02, 5.88499475e-03,
       1.40880803e-02, 8.49738531e-03, -9.86779574e-04, 9.38019156e-03,
       6.43364573e-03, 1.73918214e-02, -1.30972993e-02, -8.33303202e-04,
       -2.33300473e-03, 1.00781824e-02, -2.66639213e-03, -5.34938183e-03,
       -1.75161427e-03, -1.77346226e-02, -1.17678763e-02,
       -1.06351674e-02, 5.90946898e-03, -2.32775901e-02, -1.05016241e-02,
       -8.72550253e-03, 5.47307404e-03, 6.00204244e-03, 1.01555674e-03,
       -4.98245377e-03, 1.71006080e-02, 2.19738688e-02, 2.39228085e-03,
       1.55876474e-02, 4.69521247e-03, -1.77254807e-02, -2.16832347e-02,
       -2.42766365e-02, -1.23273497e-02, -4.94816527e-03, 7.81490933e-03,
       -2.47685276e-02, -1.55859627e-02, -1.25946896e-02,
       -4.96318191e-03, -5.00814337e-03, -2.72403453e-02,
       -4.34868690e-03, -1.76231135e-02, 1.26548596e-02, 1.51539156e-02,
       5.98436128e-03, -7.53946323e-03, 1.06738647e-02, 3.51030678e-02,
       1.12672448e-02, 4.17043874e-03, -1.55900521e-02, 2.63694637e-02,
       2.45933644e-02, 9.58507229e-03, -2.14749074e-04, -4.11605239e-02,
       -2.34013125e-02, -2.88212039e-02, -2.61732414e-02,
       -3.88204493e-02, -5.82124712e-03, -7.52282329e-03,
       -1.99547391e-02, -4.75262254e-02, -1.60652809e-02, 1.03468634e-02,
       2.77471798e-03, -1.78207792e-02, -4.10172753e-02, -2.58041397e-02,
       -4.58691875e-03, -1.10756978e-02, -3.91914323e-02,
       -3.50890099e-03, 1.69311371e-02, 1.10838544e-02, -1.73370424e-03,
       -2.33223885e-02, -3.91492434e-03, -4.15388541e-03,
       -8.30342993e-03, -1.68585405e-02, -4.15260810e-03, 3.27090546e-02,
       3.48290056e-02, 5.11696823e-02, 2.92232260e-02, -8.25340045e-04,
       -2.35401914e-02, -3.54634132e-03, -1.60617437e-02,
       -1.63851120e-02, -9.47140995e-03, 1.07528381e-02, -1.10595822e-02,
       -3.57468091e-02, -3.55269648e-02, -2.64954455e-02,
       -3.20368297e-02, -3.35903391e-02, -3.46125523e-03, 8.64505395e-03,
       7.49940053e-03, 4.31756116e-03, -1.82199739e-02, -5.22932690e-03,
       -2.94292700e-02, -2.59463172e-02, -1.74222197e-02,
       -1.22249043e-02, -2.23276373e-02, -2.27577072e-02, 1.08054583e-03,
       -2.17147972e-02, -1.68201383e-02, -3.18113007e-02,
       -2.10777372e-02, -2.52823159e-02, 1.59735084e-02, 1.44342380e-02,
       3.28320777e-03, -1.00041265e-02, 6.83794823e-03, 1.36008579e-02,
       1.47755919e-02, 8.50344263e-03, -1.64969228e-02, -2.07707025e-02,
       1.34952518e-03, -8.64841044e-03, 7.70412665e-03, -5.11991456e-02,
       -9.68997367e-03, -3.11475266e-02, -2.77644414e-02,
       -2.97468975e-02, -1.90619584e-02, 2.03908402e-02, 2.55689560e-03,
       -8.20278563e-03, -4.16149246e-03, -1.70928426e-04,
       -2.92176119e-04, -1.71730313e-02, -2.27967184e-02, 1.20193232e-02,
       3.13191488e-02, 3.77287576e-03, -2.04047300e-02, -4.34448570e-02,
       -6.55760057e-03, -2.48688031e-02, -1.86641589e-02,
       -1.86941717e-02, 3.17311659e-03, 1.58147272e-02, -8.10081605e-03,
       -1.30245760e-02, -2.36138608e-02, -1.18009839e-02,
       -2.73516942e-02, -1.00657139e-02, -9.52456053e-03,
       -1.66549888e-02, 1.21473307e-02, -6.35221740e-03, -3.20758559e-02,
       -5.64963669e-02, -1.01357000e-02, -2.96741407e-02,
       -1.68926790e-02, -3.04897595e-02, -1.59249753e-02, 1.51513657e-02,
       -6.52817776e-03, -1.69679560e-02, -6.97044879e-02,
       -2.81112734e-02, -2.40178145e-02, 4.25291527e-03, -3.01117692e-02,
       1.68571733e-02, 1.37738865e-02, -6.43151859e-03, -1.10619860e-02,
       -3.66196558e-02, -6.02347171e-03, 3.63601209e-03, 1.44893434e-02,
       9.78963170e-03, -1.38476416e-02, -9.24987998e-03, -7.28662033e-03,
       -8.68204888e-03, -4.58021164e-02, -2.19810847e-02,
       -8.03559273e-03, 1.23807089e-02, -1.49613759e-02, 2.96843587e-03,
       1.16584143e-02, -4.17991821e-03, -1.60723086e-02, -5.09514324e-02,
       -2.54262220e-02, -8.64623673e-03, 1.77224539e-02, -3.72198620e-03,
       -1.03719812e-02, -9.75050218e-03, -3.34034674e-02,
       -3.08202431e-02, -4.05932926e-02, -1.62301548e-02, 6.72390917e-03,
       2.43421718e-02, -1.81817058e-02, -1.01775965e-02, 5.23832440e-03,
       1.34796673e-03, 2.12730616e-02, -3.73835955e-03, -2.07055323e-02,
       5.69060957e-03, 1.25419628e-02, -1.33921509e-03, -1.73396301e-02,
       -1.42376255e-02, -9.77084599e-03, 9.16399620e-03, -1.80471390e-02,
       -1.81903020e-02, -7.20658386e-03, 1.70832388e-02, -1.64655410e-02,
       -3.82040651e-03, 1.22170979e-02, -9.24311019e-03, 8.33399314e-03,
       5.99150453e-03, -1.21762162e-06, 7.53687322e-03, 2.64390390e-02,
       -9.57897585e-03, -2.76338607e-02, -1.70078706e-02,
       -1.92481857e-02, 1.10795088e-02, -1.81711446e-02, -2.15877332e-02,
       -1.22899208e-02, -1.02109406e-02, -4.23038378e-02, 5.75868227e-03,
       -7.83717074e-03, -2.06233151e-02, 1.05200782e-02, -6.05517300e-03,
       1.76855680e-02, -4.01716540e-03, 3.04231960e-02, 5.65224933e-03,
       -1.10680824e-02, -4.61995695e-03, -2.89596096e-02, 1.60985496e-02,
       -1.00018922e-02, 2.57690484e-03, -1.08487541e-02, 1.38333850e-02,
       -9.71425325e-03, -1.49012366e-02, -1.09342458e-02,
       -1.72910048e-03, 4.11936231e-02, -1.51186865e-02, -7.03317346e-03,
       -1.20888427e-02, 1.04403915e-02, -3.47328819e-02, -1.73246637e-02,
       4.19268291e-03, -5.95184462e-03, 1.65217929e-02, -3.81007488e-03,
       -6.39517698e-03, -1.49832875e-03, 2.00242251e-02, -3.68761271e-02,
       -1.21780178e-02, 3.51198530e-03, -1.46374386e-02, -4.58481815e-03,
       -2.76205838e-02, -8.81008711e-03, 1.02571547e-02, 6.57380885e-03,
       -1.92832935e-03, 6.80149300e-04, 2.24057790e-02, 1.31831616e-02,
       1.18350601e-02, -1.53688854e-03, 3.19461501e-03, 5.51410019e-03,
       5.08487737e-03, 1.12686595e-02, -1.09506398e-02, 4.64089867e-03,
       -9.41359624e-03, -2.42753010e-02, -2.80681495e-02,
       -1.43289445e-02, 4.96194174e-04, 5.27700875e-04, -2.28031538e-02,
       -1.37920678e-02, 8.92053265e-03, -1.64592937e-02, -1.32982777e-02,
       -2.34781783e-02, -1.29974331e-03, 1.25062931e-03, 2.40944210e-03,
       -9.38549172e-03, 1.46542480e-02, 2.23269667e-02, 7.01465923e-03,
       -9.19173285e-03, -1.20048849e-02, -9.74893104e-03,
       -4.01335070e-03, -1.63369009e-03, 5.55938715e-03, 1.09518329e-02,
       2.75868531e-02, 2.54800711e-02, -7.34501425e-03, -3.96719165e-02,
       -5.48113929e-03, -9.06737242e-03, 4.01072158e-03, 5.11178607e-03,
       -1.41801210e-02, 5.48533490e-03, -1.85305427e-03, -1.49590289e-02,
       -9.55282990e-03, -1.78480055e-02, -1.75410956e-02,
       -1.11321127e-02, -4.56267456e-03, -2.62977164e-02,
       -2.37211920e-02, -5.16300742e-03, -1.54537503e-02,
       -5.21217771e-02, -1.68651752e-02, -1.78760383e-02,
       -1.60027128e-02, -2.22737230e-02, 8.01241025e-03, 1.32700196e-02,
       3.81519855e-03, 5.01003396e-03, -3.42570432e-02, 5.40147815e-03,
       1.75324257e-03, 1.23774409e-02, 3.63710523e-03, -7.43766548e-03,
       -9.09495458e-04, -6.73588039e-03, -2.55257673e-05, 1.70016871e-03,
       -1.90870073e-02, -2.58061197e-02, -1.12376083e-02,
       -1.30982809e-02, -1.68379061e-02, 7.76129309e-04, 2.05147150e-03,
       -3.89146642e-03, -3.36830728e-02, -3.81215429e-03,
       -4.72211372e-03, -8.19682959e-04, -3.36902472e-03,
       -1.77009068e-02, -1.47744024e-03, 4.17247601e-03, 4.41977009e-03,
       -1.07060103e-02, -8.56112130e-03, -1.88512094e-02,
       -1.23690050e-02, -2.27205586e-02, 1.38589204e-03, 7.12305587e-03,
       -6.17863191e-03, 2.52647046e-02, 1.25453742e-02, -1.67257749e-02,
       -1.80337224e-02, -1.92417018e-03, -1.87295745e-03,
       -4.74595698e-04, 1.68021349e-03, -6.37730584e-03, 2.00302284e-02,
       1.25893271e-02, 2.07439205e-03, -1.31989038e-02, 2.87807849e-03,
       3.40448064e-03, -2.16149669e-02, 1.03589240e-03, -6.11420954e-03,
       -2.49138777e-03, -2.68155001e-02, -2.16435851e-03,
       -1.83230895e-03, -1.06975641e-02, -3.36464755e-02,
       -1.12788184e-02, -9.48014611e-04, -2.65331175e-02,
       -1.12269418e-02, -7.49775348e-03, -1.02423113e-02,
       -2.15276722e-02, -2.25004274e-02, -2.64684670e-02, 6.74495613e-03,
       2.23866068e-02, 6.67734025e-03, 1.94362958e-03, 2.31051026e-03,
       3.86529602e-03, -8.71345960e-03, 5.13834925e-03, 5.79273282e-03,
       -3.63170542e-03, 9.14886594e-03, 2.73116981e-04, 8.00600834e-03,
       5.95032657e-03, 1.33397756e-02, 3.54821864e-03, 1.04559492e-02,
       -8.61016102e-03, 9.82475746e-03, 1.72592662e-02, -3.48214782e-03,
       -7.04220403e-03, -1.04801012e-02, -8.71584471e-03,
       -3.67252678e-02, -2.38254145e-02, 1.97646441e-03, 2.49122793e-04,
       2.02275272e-02, 1.42132281e-03, -4.35219333e-03, -4.18550223e-02,
       -1.75559486e-03, -1.35963736e-02, -4.13377257e-03,
       -1.24496613e-02, -2.57359818e-02, 8.09796993e-03, 9.53857508e-03,
       -6.79241680e-03, -8.32454301e-03, -5.92695177e-03,
       -4.18625958e-03, 1.39777632e-02, -4.89468407e-03, -2.44834693e-03,
       2.75227930e-02, -7.10603315e-03, -6.33742288e-03, -8.49621277e-03,
       -6.51197974e-03, -3.09643615e-03, 2.07954342e-03, -5.96356718e-03,
       -5.03840018e-03, 6.25907630e-03, 1.56763140e-02, 2.04204669e-04,
       -2.22969539e-02, -1.07099600e-02, 1.22154807e-03, -6.95111835e-03,
       -1.80178485e-03, -6.77877618e-03, -8.99976213e-03,
       -1.92183489e-03, -1.30237825e-03, 8.14466923e-03, -1.07096741e-02,
       2.69419607e-03, 8.63854587e-03, -3.77014722e-03, 1.33556249e-02,
       1.93237085e-02, -1.01884222e-02, -4.01794259e-03, -1.36248218e-02,
       -2.44345479e-02, -6.40730513e-03, 2.31105648e-03, 8.64545070e-03,
       1.69620430e-03, 1.49198920e-02, -3.30099184e-03, 8.64722300e-04,
       -5.79766405e-04, 7.32598826e-03, -2.21072719e-03, 1.35711515e-02,
       2.51462986e-03, -1.70559378e-03, 2.19567474e-02, -8.96909460e-03,
       4.42899019e-03, -1.11970585e-02, -2.01699343e-02, -1.13161774e-02,
       1.12997079e-02, -8.59135855e-03, -2.39855628e-02, 1.62447207e-02,
       -2.16685701e-03, 2.76443828e-03, -9.40806791e-03, 7.56907510e-03,
       -1.02511677e-03, 1.39562320e-02, -1.73844155e-02, 1.80923182e-03,
       2.27516089e-02, 1.43489847e-02, -6.47819834e-03, 1.46174235e-02,
       2.99917422e-02, 1.13571780e-02, 1.99100450e-02, 1.00072753e-02,
       -1.94896329e-02, -5.44236740e-03, -7.11137336e-03,
       -1.40187461e-02, 1.69751663e-02, 2.42701750e-02, -5.12505556e-03,
       -7.24137947e-03, -1.25169503e-02, -1.99935045e-02, 1.53328832e-02,
       2.05407199e-02, -1.67733133e-02, -7.22429715e-03, 2.16305852e-02,
       5.52190607e-03, 1.78569052e-02, -2.35409127e-03, -1.24989636e-02,
       -4.03460860e-03, -1.12992770e-03, -1.90260485e-02,
       -2.06941999e-02, 8.66417494e-03, 1.66011800e-03, 6.46453910e-03,
       -4.98844450e-03, -2.09680898e-03, -2.67645158e-02,
       -9.20174643e-03, -1.39629059e-02, -2.04996653e-02,
       -4.92246822e-03, 1.80872548e-02, 1.31941354e-02, 3.82011081e-03,
       1.17214322e-02, 1.74682196e-02, 4.17964943e-02, 1.47005275e-03,
       -5.19330055e-03, -1.68480437e-05, 2.35851537e-02, 2.90169716e-02,
       6.73317397e-03, -4.16749045e-02, -2.80802865e-02, -1.10248504e-02,
       -7.10652862e-03, -6.50916155e-03, -2.41968334e-02,
       -8.40922166e-03, -2.63244342e-02, -4.63664420e-02,
       -7.64828315e-03, 4.95450571e-03, 1.95388552e-02, -8.70439503e-03,
       -2.58228853e-02, -8.27181339e-03, -7.32659188e-04,
       -6.65828027e-03, -2.17422359e-02, -1.67760849e-02,
       -9.57907829e-03, 1.90977321e-03, -2.29927003e-02, -4.32553589e-02,
       -7.39313988e-03, -4.53935051e-03, 1.18557340e-03, -1.70932077e-02,
       2.18933932e-02, 2.72321533e-02, 1.99122000e-02, 2.30563655e-02,
       -7.00086879e-04, 2.69240774e-02, 1.41057826e-04, -6.53790403e-03,
       6.49041589e-03, -3.10706161e-02, -1.30958892e-02, -1.03704073e-02,
       -2.03869138e-02, -4.15627770e-02, -1.42242145e-02,
       -2.82169376e-02, -2.08163448e-02, -4.69067357e-02,
       -8.80357251e-03, 9.15396027e-03, 1.01624802e-02, -1.28476433e-02,
       -2.51772553e-02, 1.11367246e-02, 1.56062408e-04, 5.76701527e-03,
       -1.42219150e-02, 1.69017296e-02, 1.72354802e-02, -1.57630432e-03,
       2.09970865e-03, -2.20708624e-02, 7.79789221e-03, 2.36571161e-03,
       -3.32298456e-03, -3.99360014e-03, 9.23046470e-03, 2.16711815e-02,
       1.65257733e-02, -3.36188101e-03, 7.96679780e-03, 1.10770613e-02,
       5.46360668e-03, -1.07047744e-02, 1.39643569e-04, -3.37890871e-02,
       -1.15998443e-02, -1.68187656e-02, -3.23344916e-02,
       -1.63158160e-02, -1.14288135e-02, -8.19561165e-03,
       -2.82957917e-03, -2.09570322e-02, -2.20187362e-02,
       -1.66158509e-02, -1.71895493e-02, -2.69947182e-02, 1.16227129e-02,
       -4.59029153e-03, -1.92299597e-02, -7.43299490e-03,
       -1.87286437e-02, -2.79642735e-03, 1.10423565e-02, 1.47044589e-03,
       -1.58409681e-02, -4.71050553e-02, 3.83088039e-03, -2.01656520e-02,
       -4.81418613e-03, -6.53144298e-03, 2.57357303e-03, 1.06862690e-02,
       1.26195271e-02, -1.14697199e-04, -4.56990562e-02, -2.07385383e-04,
       -5.04491432e-03, 3.34461555e-02, 1.03377681e-02, -5.81287895e-04,
       -6.22772099e-03, -2.14724280e-02, -2.81557925e-02,
       -3.80330235e-02, -1.45829273e-02, -3.19402814e-02,
       -2.17900574e-02, -1.19267209e-02, -2.50102710e-02, 2.96109065e-04,
       -2.00005248e-02, -2.04656646e-02, -4.63183038e-02,
       -7.97506887e-03, -5.02124848e-03, 3.68023780e-03, -1.94882210e-02,
       1.27528990e-02, 1.16804894e-02, 1.37359474e-03, 1.34063954e-03,
       -3.32727395e-02, -1.46380747e-02, 3.82788200e-03, 3.20590697e-02,
       8.47663637e-03, 1.94291472e-02, 7.69659353e-04, -1.29514216e-02,
       -2.07409877e-02, -2.59651113e-02, -2.77378540e-02,
       -1.28076249e-03, 2.58593522e-02, 1.79274399e-02, -2.33458579e-02,
       1.14316773e-02, -1.09123169e-02, -1.32143386e-02, -4.35103886e-02,
       -2.37571150e-02, -6.09636260e-03, 1.75271053e-02, -2.59734634e-02,
       -2.97574624e-02, -8.90137628e-03, -3.95763703e-02,
       -5.57713248e-02, -4.82256040e-02, -4.79265340e-02,
       -1.00010186e-02, 1.07495841e-02, -2.18774490e-02, 4.12684260e-03,
       4.38542245e-03, -1.23621169e-02, 2.52628746e-03, -1.81186162e-02,
       7.25524081e-03, 1.03201410e-02, 2.80648619e-02, 1.52842226e-02,
       -9.55249090e-03, -7.63387373e-03, -1.94076896e-02, 4.01953794e-03,
       -1.68698914e-02, -1.30679496e-02, -3.34503711e-03,
       -8.75465665e-03, -2.49106679e-02, -2.55931374e-02,
       -8.20416678e-03, -2.42369138e-02, -5.71637042e-03,
       -2.63781473e-02, -2.52191001e-03, 5.02086757e-03, 1.12524796e-02,
       -2.16450728e-02, -2.15907879e-02, -2.22173147e-02,
       -1.21067949e-02, -6.12438656e-03, -5.69250956e-02,
       -2.56781708e-02, -1.63870007e-02, -9.34750016e-04,
       -2.66529564e-02, -2.13888623e-02, -1.25285443e-02, 5.36105083e-03,
       3.86888981e-02, -1.97953228e-02, -1.11374687e-02, -6.58073477e-05,
       4.13544104e-03, -1.67891663e-02, -2.62945946e-02, -3.42994300e-03,
       -2.08459515e-03, -1.04191406e-02, -8.67438223e-03, 1.54362572e-02,
       2.41946219e-03, 8.87852442e-03, -1.36793097e-02, -2.04975996e-02,
       -1.39153795e-02, 1.39525393e-02, 1.09940693e-02, -4.46786433e-02,
       -2.18289420e-02, 1.10284826e-02, 5.67241479e-03, -3.93633032e-03,
       -2.25750450e-02, -1.49956206e-02, -1.71475559e-02,
       -2.53200699e-02, -3.02629210e-02, -7.76967080e-03, 1.12222414e-03,
       -1.08122535e-03, -1.27475858e-02, 9.49242245e-03, 1.33614307e-02,
       7.48273171e-03, -1.85832325e-02, -1.35106575e-02, 1.52893886e-02,
       1.39928295e-03, -1.11151021e-03, -9.06818081e-03, 7.41515262e-03,
       1.09037310e-02, -5.41327149e-03, -2.88515957e-03, 8.24419595e-03,
       5.74669614e-03, 6.04091492e-03, -3.70953348e-03, -5.10852737e-03,
       -8.91487216e-05, 5.43570658e-03, -1.43363653e-02, -2.88975462e-02,
       -2.93891970e-02, -7.10401125e-03, -5.82367834e-03,
       -5.79938153e-03, -7.09386833e-04, -5.22782654e-03,
       -9.51811951e-03, -2.42361203e-02, -5.94705762e-03,
       -4.25736271e-02, -1.04040615e-02, -1.31480340e-02,
       -2.65235151e-03, -1.36434082e-02, -6.69580372e-03, 1.82993636e-02,
       1.12356134e-02, 1.62659027e-02, 1.04815988e-02, 2.51984806e-03,
       1.01500507e-02, 8.71540699e-03, 9.87214735e-04, -1.54890819e-02,
       -2.54508853e-03, 1.63377002e-02, 4.52395901e-03, -5.72223077e-03,
       5.62854763e-03, -1.55038342e-05, -1.06557198e-02, -1.82796642e-02,
       7.62773538e-03, 3.60506703e-03, -9.82228015e-03, -1.29948007e-02,
       -2.38411631e-02, -1.42493797e-02, -1.37895057e-02,
       -1.04151480e-02, -5.66673791e-03, -9.41228122e-03,
       -4.86001372e-03, -2.56390329e-02, -3.49812470e-02,
       -3.23078446e-02, -2.59610675e-02, -1.08758705e-02,
       -2.06361283e-02, -1.86017621e-02, -9.64704342e-03, 1.05719119e-02,
       2.66048480e-02, 2.98067834e-02, -1.01021063e-02, 1.73216369e-02,
       9.12378728e-03, -1.16128307e-02, -4.23858128e-03, 3.20624234e-03,
       2.43465453e-02, 2.24846564e-02, 1.95620134e-02, -3.49621614e-03,
       1.86576508e-02, 5.35471179e-03, -6.13393058e-05, -7.85358343e-03,
       -1.01880552e-02, 5.27216122e-03, 2.24642703e-04, -4.35077446e-03,
       -5.14851958e-02, -1.70568042e-02, 2.03446997e-03, -1.81795843e-02,
       -3.13101262e-02, -1.39086517e-02, 1.28553193e-02, -3.80022801e-03,
       -1.63941439e-02, -5.89378290e-02, -1.58202555e-02,
       -2.11188532e-02, -2.10110843e-02, -3.25944684e-02, 1.99532253e-03,
       1.83949918e-02, 1.07526435e-02, -1.76354859e-03, 9.53000999e-05,
       9.77442507e-03, 1.62320528e-02, 7.53564120e-04, -1.36122052e-02,
       1.61305740e-02, 2.12326106e-02, 1.13690533e-02, 1.12045510e-02,
       3.60761620e-02, 4.44907509e-03, -5.07411640e-03, -2.25579794e-02,
       -1.32112093e-02, -1.85799096e-02, -5.60799846e-03, 1.10001629e-03,
       -2.44730003e-02, -2.89360192e-02, -6.87991315e-03,
       -1.06615964e-02, -2.68456228e-02, -4.00404111e-02,
       -1.57734789e-02, -1.24300160e-02, 2.05476626e-05, -3.78330413e-04,
       -1.56270303e-02, -8.19630513e-04, 1.09692244e-02, -1.54854720e-02,
       -2.26243213e-02, -5.22473082e-03, -2.34118290e-03, 1.00471573e-02,
       -1.51151121e-02, 1.17125246e-03, -3.71201150e-03, -1.75595470e-02,
       -2.41987389e-02, 1.33984920e-03, 6.81340136e-03, 1.86266694e-02,
       1.52480807e-02, -1.35775609e-02, -1.58271473e-02, 1.28444156e-03,
       1.90328655e-03, 1.13772592e-02, 8.10765848e-03, -3.10336100e-03,
       -8.40026513e-03, 1.31341219e-02, -9.89896059e-03, -2.44164634e-02,
       -8.24641902e-03, 9.39930882e-03, -1.69576947e-02, -6.39514648e-04,
       9.86199640e-03, -3.26634897e-03, 1.23561099e-02, -1.59476120e-02,
       -1.82987507e-02, -1.05118277e-02, -1.14830751e-02,
       -3.75407026e-03, 6.03571301e-03, -3.74474120e-03, 8.39510094e-03,
       2.41871476e-02, 2.26359186e-03, -2.82043330e-02, -1.17941098e-02,
       1.45731466e-02, 3.16142547e-03, -6.13506977e-03, 2.78731016e-03,
       8.52518249e-03, 2.30061375e-02, -3.07725230e-03, 1.97260603e-02,
       -4.26015491e-03, 1.50799686e-02, 1.38410060e-02, 1.62795407e-03,
       -3.93940601e-03, 2.27776729e-03, 7.87033420e-03, 3.46492277e-03,
       -1.30351139e-02, -8.73411261e-03, -2.10544989e-02,
       -4.82334476e-03, -1.02562271e-02, -2.38823285e-03,
       -5.85966185e-03, 1.28610600e-02, -5.47965895e-03, 3.93302238e-04,
       -1.40421418e-02, 1.55799603e-03, 5.89842070e-03, -2.45971582e-03,
       -7.96792936e-03, 1.39793912e-02, 4.25798213e-03, 1.54174317e-03,
       6.17783796e-03, -6.15701592e-03, 6.56312983e-03, 1.44036999e-02,
       -1.54831242e-02, -1.34995524e-02, 1.21982712e-02, -2.25372985e-03,
       1.89687833e-02, 1.68033876e-02, 7.46077206e-03, -6.64485758e-03,
       5.73863881e-03, -1.91287175e-02, -3.17784306e-03, -1.45979307e-03,
       9.12154932e-03, -7.42196199e-03, -2.91329399e-02, -1.22576281e-02,
       1.80717837e-03, 3.86974448e-03, -3.60479578e-03, 3.74423078e-04,
       1.10801039e-02, 1.55515289e-02, 6.62250537e-03, -4.59768772e-02,
       -7.90667720e-03, -1.54849654e-03, -7.76756043e-03,
       -1.36457561e-02, -5.70734078e-03, 1.02799293e-02, 1.57244541e-02,
       -6.03240961e-03, 3.01183783e-03, 8.19245260e-03, 2.96233315e-03,
       4.14386438e-03, -1.05613153e-02, -5.37450658e-03, 7.61363097e-03,
       2.30736509e-02, 4.22017509e-03, -1.43807642e-02, -3.92050520e-02,
       -7.35502783e-03, -7.06401002e-03, -1.43297277e-02, 3.29112122e-03,
       1.30713694e-02, 3.38616557e-02, 7.94900302e-03, -3.66905779e-02,
       -2.14694701e-02, 4.50381450e-03, -7.29485089e-03, -1.83478333e-02,
       -2.32968796e-02, 6.61995308e-03, 2.83875596e-02, 9.02320910e-03,
       -3.87700112e-03, -3.72835547e-02, -5.76192886e-03,
       -1.68453585e-02, -4.21275534e-02, -2.86329966e-02,
       -2.86751557e-02, -1.99113060e-02, 1.57682633e-03, 9.46040917e-03,
       -3.86320450e-03, 5.33997454e-03, -6.88613905e-03, -3.08179837e-02,
       5.62817045e-03, 2.18100753e-02, 2.55953819e-02, 1.72400884e-02,
       1.87065620e-02, 5.98757900e-03, 7.22893048e-03, -3.74471443e-03,
       -1.72184594e-02, -9.05739889e-03, -2.47010775e-02,
       -2.45522652e-02, -3.77729870e-02, 4.90305992e-03, -2.57880539e-02,
       -9.79043450e-03, -6.96900859e-03, -1.97689105e-02, 1.97895337e-02,
       -5.46798343e-03, 2.95575755e-05, -1.56522058e-02, 3.26819308e-02,
       -2.87724361e-02, -9.21583152e-04, 1.35484978e-03, -5.75002236e-03,
       -1.06697818e-02, 5.79370838e-03, -3.21700424e-03, -5.97043242e-03,
       -2.15719305e-02, -1.11320047e-02, -8.92366190e-03,
       -1.36226378e-02, -3.28086689e-02, -8.70719180e-03, 2.28493772e-02,
       1.58336088e-02, 1.68391305e-03, -1.57433059e-02, 3.19421925e-02,
       2.20172815e-02, 1.87404435e-02, -6.99530030e-03, 2.30507669e-03,
       -5.28950524e-03, -1.07871462e-02, -3.18656564e-02,
       -1.98294166e-02, -4.32764292e-02, -8.41722451e-03,
       -1.86127182e-02, -1.53263500e-02, 3.11961444e-03, 2.30097510e-02,
       5.98670775e-03, -1.16018895e-02, -2.64862254e-02, -1.17089711e-02,
       1.45628806e-02, 8.71662609e-03, 4.38558403e-03, -1.57711543e-02,
       -2.44544703e-03, 1.70169002e-03, -1.31875025e-02, -4.11255918e-02,
       7.44875427e-03, 1.20183825e-02, 1.85137708e-02, -1.49280531e-02,
       3.12651135e-03, -5.09701949e-03, 2.10916958e-04, 6.29179412e-03,
       5.49939368e-03, 1.60788614e-02, 1.65109243e-02, 2.92598289e-02,
       1.13922693e-02, -1.98282078e-02, 9.55600932e-04, -1.42601470e-03,
       -1.44358715e-02, -4.32426780e-02, -2.25665309e-02,
       -7.81908259e-03, 8.11158773e-03, -2.10860427e-02, -1.32860905e-02,
       -6.39547082e-03, -1.54422820e-02, -3.16444822e-02,
       -4.35372181e-02, -2.00155340e-02, 9.58298240e-03, 2.18677036e-02,
       -4.13105777e-03, 1.11363642e-02, 4.76384209e-03, 7.09284935e-03,
       2.55037099e-03, -2.90910229e-02, 2.77331285e-03, 9.98009369e-03,
       1.62423924e-02, 9.18780640e-03, -2.26973076e-04, 7.45798508e-03,
       1.90151036e-02, 1.50641063e-02, -2.32159477e-02, 2.22261418e-02,
       2.58164760e-02, 3.04732006e-02, -1.26918890e-02, -1.20457942e-02,
       -2.95382598e-03, -2.85335518e-02, -2.49393843e-02,
       -4.29056957e-02, -1.12727927e-02, 9.53860860e-03, 2.33862195e-02,
       -6.61411090e-03, -1.32953795e-02, -2.45712744e-03,
       -3.44470367e-02, -2.71262825e-02, -4.03572805e-02, 4.96331090e-03,
       1.71229560e-02, 2.71005351e-02, -1.25561878e-02, 7.51771126e-03,
       2.09129360e-02, 1.21642165e-02, 1.79730207e-02, -4.48111584e-03,
       7.97779858e-03, 7.61881610e-03, 3.29050235e-02, -2.04608291e-02,
       5.80190262e-03, 4.28157263e-02, 4.17478429e-03, -7.54289469e-03,
       -1.10158613e-02, -1.69306658e-02, -1.26808044e-02, 1.13620618e-02,
       -3.23598050e-02, -2.57569291e-02, 1.86923444e-02, 8.30572972e-04,
       2.94568646e-03, -3.71355587e-03, -3.58431274e-03, -6.09337306e-03,
       9.82751139e-03, -2.59919334e-02, 7.48246489e-03, 2.16795057e-02,
       -2.41192966e-03, -1.53448591e-02, -2.63257679e-02,
       -3.29405256e-02, -3.64405140e-02, -1.07800802e-02,
       -1.11077819e-02, 7.77055183e-03, 3.79292257e-02, 2.29967921e-03,
       1.15795527e-02, -6.26404770e-03, 4.19515977e-03, -2.89964490e-03,
       1.44769792e-02, -1.18212691e-02, -8.42945743e-03, 1.49276685e-02,
       4.00262605e-03, 1.44839454e-02, -2.30655652e-02, -1.25656780e-02,
       -1.19569609e-02, -5.36312209e-03, -1.22834928e-02, 4.19002259e-03,
       1.18366852e-02, -1.73091181e-02, -1.52893234e-02, -3.50234611e-03,
       -1.81257110e-02, -2.51174774e-02, 3.23373871e-03, -5.03053237e-03,
       -1.75786484e-02, -2.86884848e-02, -1.68775506e-02,
       -5.40386187e-03, -4.18063253e-02, -2.42812186e-02,
       -3.35406810e-02, -4.83948737e-03, -2.17638556e-02, 1.43052335e-03,
       7.72058824e-03, 1.49566187e-02, 2.63645221e-02, -9.96983983e-03,
       -1.21528115e-02, 5.60052693e-03, 9.83511657e-03, 1.13707045e-02,
       -3.13836127e-03, 1.13053585e-03, -1.20169949e-03, -5.41191874e-03,
       -8.19099136e-03, -8.21005087e-03, 7.67337112e-03, 1.08904438e-02,
       8.20273161e-03, 9.98409744e-03, -5.52739901e-03, 1.03812115e-02,
       -8.02142825e-03, -1.21285580e-02, -3.34446728e-02,
       -4.35067974e-02, -2.62678936e-02, -1.65222841e-03, 1.62991583e-02,
       -4.99129063e-04, -1.88893043e-02, -2.25680862e-02,
       -8.85244273e-03, -2.30978783e-02, -3.04138791e-02,
       -3.52987349e-02, 4.50502662e-03, 2.95992329e-04, 1.76283997e-02,
       1.85511019e-02, 5.73085481e-03, 2.30356865e-03, 3.73078650e-03,
       2.99990154e-03, 1.22694420e-02, 3.11120250e-03, 6.59744907e-03,
       3.76900584e-02, 8.95714015e-03, 2.31309142e-02, -2.32969187e-02,
       -1.14653176e-02, -1.85954068e-02, 1.53735215e-02, -5.51056024e-03,
       1.22141717e-02, 1.09266853e-02, -1.70780905e-02, -9.13079362e-03,
       2.59580351e-02, -1.71853751e-02, -2.82995850e-02, -2.78986804e-02,
       -4.93298844e-03, -5.64833172e-03, 9.11500864e-03, -1.36597678e-02,
       1.18337071e-03, -1.03804739e-02, -3.08152586e-02, -2.69416012e-02,
       -5.79078915e-03, -1.73584521e-02, 2.21426450e-02, 4.56121303e-02,
       9.84224863e-03, 1.23830447e-02, 1.27509143e-02, -8.33598152e-03,
       -3.36208707e-03, 1.15418071e-02, 1.53999729e-02, 1.37574794e-02,
       2.93316133e-02, 1.09260064e-03, -1.58527251e-02, -7.87054247e-04,
       -1.89081989e-02, 4.49076993e-03, -5.00476081e-03, -4.91728599e-04,
       1.09047201e-02, 1.87197477e-02, -1.38284918e-03, -1.88415237e-02,
       1.06237978e-02, -2.23920587e-02, -1.50240511e-02, -2.62151449e-03,
       -1.15501368e-02, 9.14951600e-03, 7.36576179e-03, -2.11943071e-02,
       -3.84810418e-02, -5.10432310e-02, -3.06733884e-02,
       -1.05665224e-02, -1.08042890e-02, 5.95810218e-03, 7.10197724e-03,
       2.63725705e-02, 1.04010934e-02, 9.75108333e-03, 1.97000569e-03,
       -2.78458255e-03, 9.29163769e-03, 3.37420520e-03, 7.27024570e-04,
       8.51292443e-03, 1.36948014e-02, -1.07656335e-02, 5.37822442e-03,
       -5.34425117e-03, -1.74417405e-03, -8.86871386e-03, 2.60905339e-03,
       3.61215044e-03, -4.56780195e-03, 3.76419793e-03, -8.62117112e-03,
       -1.36470096e-02, -1.47958370e-02, -2.15729196e-02,
       -4.60167462e-03, -1.07302824e-02, -1.85130183e-02,
       -6.65654847e-03, 5.21236612e-03, -1.26794018e-02, 1.14483736e-03,
       2.26991568e-02, -4.11277218e-03, -9.85302590e-03, -1.33677488e-02,
       -3.75686772e-02, -5.72218560e-03, 5.45337517e-03, 2.54552416e-03,
       -3.69294151e-03, -1.47745609e-02, -1.52042613e-03, 5.71874576e-03,
       1.13703972e-02, -7.74065405e-03, -1.51121651e-03, 1.54555254e-02,
       2.42460445e-02, 7.28167221e-03, -8.46999581e-04, 2.46894336e-03,
       1.72943566e-02, 2.84462497e-02, 2.03122627e-02, -1.44391786e-02,
       1.78238773e-03, -1.71619784e-02, 7.99309276e-03, 1.08787213e-02,
       -3.43462937e-02, -9.35412571e-03, -3.54443653e-03,
       -2.93663293e-02, -3.72488820e-03, 1.33663351e-02, 1.72188017e-03,
       5.51817182e-04, 1.76395308e-02, -2.73377243e-02, -2.21533095e-03,
       4.81710583e-03, -4.22327779e-03, 8.22093245e-03, 1.95356235e-02,
       1.45872477e-02, -3.19929305e-03, -1.98360048e-02, -6.99869078e-03,
       4.86981776e-03, 9.56246536e-03, 2.32468508e-02, 2.07575206e-02,
       2.34954730e-02, 3.51104625e-02, 1.14328032e-02, -5.19585283e-03,
       -7.72017520e-03, 1.07871927e-02, 1.53373003e-05, 1.41206840e-02,
       -1.75712463e-02, 1.67865008e-02, 1.69485435e-02, -1.95607357e-02,
       -1.06039662e-02, -4.14039195e-02, -3.15514654e-02,
       -2.10603531e-02, -2.94887498e-02, 2.69101863e-03, 5.80363022e-03,
       8.20008013e-03, -1.75015926e-02, -1.04941670e-02, -2.09497679e-02,
       -4.64446889e-03, -1.23418681e-02, -8.01272783e-03, 4.40171640e-03,
       1.14982976e-02, 1.44588936e-03, 1.32519370e-02, -1.39221698e-02,
       4.21921629e-03, 1.49536580e-02, 1.26269914e-03, 2.53350218e-03,
       6.74593868e-03, 1.99347944e-03, 1.88364778e-02, 4.69088927e-03,
       -9.98643599e-03, -1.14690152e-03, 3.39625478e-02, 2.91365068e-02,
       1.63163990e-02, 4.69904440e-03, 1.39981201e-02, 3.66880820e-04,
       -5.01128566e-03, -3.08396970e-03, -1.47464434e-02,
       -1.82104902e-03, -2.51614619e-02, -1.67243220e-02, 8.93895049e-03,
       1.95562665e-04, -1.01455096e-02, -2.34748814e-02, -2.75758673e-02,
       -3.35479416e-02, 1.81948338e-02, -4.03598743e-03, 3.61591624e-03,
       -9.59261414e-03, -9.26697452e-04, 8.72560591e-03, 9.06019995e-04,
       -8.08330905e-03, -1.19247730e-03, 2.58914772e-02, 2.19060499e-02,
       3.82149522e-03, -1.13281021e-02, 6.04634499e-03, 2.54606102e-02,
       2.00951397e-02, -2.06946880e-02, 2.27648974e-03, 1.60869006e-02,
       6.63107866e-03, -1.64961219e-02, -9.16535093e-04, -1.42153725e-02,
       -2.28936989e-02, -3.26863602e-02, 8.07127729e-03, -2.13358775e-02,
       7.56995054e-03, 1.16455760e-02, 9.48225334e-03, 2.81522400e-03,
       -1.22670608e-03, -8.91565904e-03, -1.22541226e-02, 1.72109038e-04,
       -3.79890669e-03, 5.09844767e-03, 2.42614327e-03, 1.23117759e-03,
       -8.46137013e-03, 1.29690291e-02, 3.46251838e-02, 7.02597061e-03,
       -1.97117478e-02, -4.01849486e-03, 1.83273740e-02, -2.07367772e-03,
       -1.25410324e-02, -3.34059559e-02, 6.92126527e-03, 2.23070346e-02,
       1.01306345e-02, 5.52278757e-03, -3.97513795e-04, -7.43146753e-03,
       -2.54715942e-02, -4.66032065e-02, 6.29042601e-03, -2.04989756e-03,
       1.76375620e-02, -1.54199339e-02, 1.21235044e-03, 2.18034256e-03,
       3.71539709e-03, -2.67101009e-03, -7.16345338e-03, -1.91965476e-02,
       -2.67074350e-02, -8.34882818e-03, -6.93150889e-03,
       -9.64974239e-03, -9.89055540e-03, 1.32918172e-03, -2.29194015e-02,
       -2.58643888e-02, 2.53644061e+00 ]
